tree
version=v4
num_class=1
num_tree_per_iteration=1
label_index=0
max_feature_idx=75
objective=regression
feature_names=hora dia dia_semana mes ano dia_ano fin_semana hora_punta hora_sin hora_cos dia_semana_sin dia_semana_cos hora_fin_semana cest es_festivo_o_domingo lluvia temperatura humedad velocidadViento cp_41001_lag_24h cp_41001_lag_48h cp_41001_lag_168h cp_41001_rolling_mean_6h cp_41001_rolling_std_6h cp_41001_rolling_mean_12h cp_41001_rolling_std_12h cp_41001_rolling_mean_24h cp_41001_rolling_std_24h cp_41003_lag_24h cp_41003_lag_48h cp_41003_lag_168h cp_41003_rolling_mean_6h cp_41003_rolling_std_6h cp_41003_rolling_mean_12h cp_41003_rolling_std_12h cp_41003_rolling_mean_24h cp_41003_rolling_std_24h cp_41005_lag_24h cp_41005_lag_48h cp_41005_lag_168h cp_41005_rolling_mean_6h cp_41005_rolling_std_6h cp_41005_rolling_mean_12h cp_41005_rolling_std_12h cp_41005_rolling_mean_24h cp_41005_rolling_std_24h cp_41010_lag_24h cp_41010_lag_48h cp_41010_lag_168h cp_41010_rolling_mean_6h cp_41010_rolling_std_6h cp_41010_rolling_mean_12h cp_41010_rolling_std_12h cp_41010_rolling_mean_24h cp_41010_rolling_std_24h cp_41020_lag_24h cp_41020_lag_48h cp_41020_lag_168h cp_41020_rolling_mean_6h cp_41020_rolling_std_6h cp_41020_rolling_mean_12h cp_41020_rolling_std_12h cp_41020_rolling_mean_24h cp_41020_rolling_std_24h temperatura_lag_6h temperatura_lag_12h temperatura_lag_24h humedad_lag_6h humedad_lag_12h humedad_lag_24h lluvia_lag_6h lluvia_lag_12h lluvia_lag_24h velocidadViento_lag_6h velocidadViento_lag_12h velocidadViento_lag_24h
feature_infos=[0:23] [1:31] [0:6] [1:12] [2021:2023] [1:365] [0:1] [0:1] [-1:1] [-1:1] [-0.97492791218182362:0.97492791218182362] [-0.90096886790241903:1] [0:23] [0:1] [0:1] [0:45.700000000000003] [-2.1000000000000001:35.399999999999999] [17:100] [1:77] [3.7999999999999998:60.494999999999997] [3.7999999999999998:60.494999999999997] [3.7999999999999998:60.494999999999997] [6.3208333333333302:59.471666666666664] [0.0019025370135119153:21.370131648323078] [7.0837222222222218:47.8825] [0.0036666622860291004:19.896615613686404] [7.4750555555555556:35.564999999999998] [0.0071909164186546113:17.330176149984439] [3.9750000000000001:24.350000000000001] [3.9750000000000001:24.350000000000001] [3.9849999999999999:24.350000000000001] [4.2924999999999995:19.040833333333335] [0.063796551630852502:6.4077084437416989] [5.2225000000000001:17.27416666666667] [0.28562726510330988:6.3004182611277786] [6.3193750000000009:16.161041666666666] [0.50863561213030739:4.8173756310894573] [89.700000000000003:228.27000000000001] [89.700000000000003:228.27000000000001] [89.700000000000003:228.27000000000001] [96.6357142857143:209.05166666666665] [0.039008767608906689:51.773253712703649] [104.95857142857143:203.76456521739132] [0.061654976040611841:50.469504158452068] [111.65978723404255:201.49833333333336] [0.1368358305399896:38.855158210516564] [19.719999999999999:167.26499999999999] [19.719999999999999:167.26499999999999] [19.719999999999999:167.26499999999999] [21.62166666666667:117.30999999999999] [0.024194274410679124:68.591039095254033] [23.167622549019608:82.203333333333333] [0.055378582386348948:53.336511728208563] [24.123296568627449:61.539375] [0.11683789629017326:39.160538142943501] [27.954999999999998:84.489999999999995] [27.954999999999998:84.489999999999995] [27.954999999999998:84.489999999999995] [29.119907407407407:72.776666666666657] [0:16.024141396655022] [29.503796296296297:67.122916666666654] [0:15.630288341434074] [30.271574074074078:62.225000000000001] [0:14.33960210067904] [-2.1000000000000001:35.399999999999999] [-2.1000000000000001:35.399999999999999] [-2.1000000000000001:35.399999999999999] [17:100] [17:100] [17:100] [0:45.700000000000003] [0:45.700000000000003] [0:45.700000000000003] [1:77] [1:77] [1:77]
tree_sizes=3267 3438 3472 3458 3461 3441 3460 3468 3462 3479 3498 3462 3493 3498 3456 3469 3478 3497 3494 3437 3463 3440 3464 3460 3475 3475 3466 3480 3467 3485 3495 3486 3461 3472 3486 3459 3447 3459 3468 3445 3441 3500 3440 3471 3454 3500 3483 3449 3490 3485 3484 3501 3467 3490 3497 3459 3490 3495 3508 3494 3479 3478 3492 3493 3468 3487 3467 3441 3469 3491 3489 3487 3456 3502 3496 3491 3498 3490 3483 3482 3487 3498 3481 3481 3514 3478 3497 3495 3506 3491 3503 3511 3496 3492 3500 3499 3512 3488 3487 3482 3492 3476 3480 3487 3513 3490 3509 3512 3510 3534 3530 3509 3516 3487 3492 3519 3476 3508 3504 3496 3483 3525 3507 3514 3498 3525 3533 3523 3520 3487 3511 3515 3529 3505 3521 3511 3537 3543 3514 3530 3521 3519 3493 3513 3491 3494 3515 3496 3528 3509 3507 3517 3523 3525 3505 3539 3531 3528 3524 3521 3531 3532 3538 3542 3540 3539 3530 3544 3495 3544 3538 3505 3551 3520 3536 3554 3553 3551 3541 3533 3542 3535 3502 3521 3537 3524 3540 3542 3542 3532 3525 3539 3529 3553 3546 3525 3560 3526 3544 3552 3526 3570 3532 3546 3531 3542 3542 3524 3552 3527 3535 3531 3538 3510 3524 3545 3542 3565 3544 3529 3532 3559 3542 3543 3529 3549 3528 3553 3546 3560 3525 3531 3549 3574 3543 3526 3546 3519 3541 3514 3571 3549 3548 3539 3554 3530 3514 3538 3539 3548 3555 3542 3543 3568 3544 3541 3538 3540 3557 3570 3539 3546 3527 3553 3531 3542 3549 3558 3532 3563 3532 3537 3557 3560 3535 3540 3540 3534 3563 3522 3551 3555 3549 3566 3548 3526 3518 3579 3549 3571 3543 3543 3529 3513 3523 3548 3536 3546 3537 3558 3523 3565 3555 3532 3528 3539 3513 3532 3545 3558 3563 3523 3560 3553 3539 3530 3595 3559 3536 3561 3557 3514 3546 3538 3552 3561 3554 3548 3520 3576 3533 3561 3543 3571 3550 3539 3542 3556 3584 3555 3584 3498 3556 3553 3586 3552 3535 3545 3537 3548 3578 3552 3559 3532 3559 3563 3546 3528 3515 3518 3567 3538 3538 3553 3556 3551 3550 3569 3563 3538 3554 3527 3546 3552 3558 3549 3597 3573 3528 3563 3571 3566 3521 3568 3585 3573 3578 3576 3553 3569 3542 3517 3497 3577 3565 3521 3525 3510 3534 3555 3528 3544 3513 3578 3491 3540 3543 3508 3557 3509 3582 3548 3571 3591 3552 3554 3553 3561 3565 3537 3538 3516 3540 3526 3547 3498 3527 3562 3548 3541 3522 3538 3556 3540 3537 3581 3567 3504 3551 3538 3561 3559 3578 3535 3553 3535 3524 3534 3549 3575 3538 3583 3559 3551 3526 3546 3565 3562 3567 3558 3590 3514 3554 3560 3539 3550 3578 3550 3512 3542 3535 3540 3507 3551 3488 3514 3589 3545 3530 3589 3564 3540 3502 3552 3543 3455 3562 3524 3595 3536 3541 3526 3550 3532 3572 3548 3523 3492 3586 3519 3508 3530 3536 3563 3541 3566 3536 3576 3522 3500 3547 3571 3579 3556 3519 3529 3568 3568 3580 3555 3526 3521 3584 3515 3542 3562 3558 3576 3532 3527 3536 3547 3591 3528 3555 3560 3577 3543 3550 3543 3537 3567 3559 3545 3530 3541 3564 3608 3504 3533 3534 3550 3560 3554 3557 3585 3528 3547 3557 3548 3578 3540 3565 3560 3544 3528 3474 3532 3508 3557 3506 3551 3597 3547 3554 3552 3558 3521 3557 3520 3590 3561 3494 3515 3601 3578 3556 3534 3557 3546 3540 3524 3596 3600 3551 3524 3502 3552 3529 3555 3559 3558 3561 3563 3552 3579 3552 3562 3552 3575 3571 3595 3535 3573 3593 3577 3553 3512 3530 3506 3569 3513 3504 3552 3558 3524 3590 3530 3574 3552 3562 3544 3516 3548 3581 3571 3541 3561 3565 3551 3560 3530 3541 3551 3518 3578 3561 3564 3523 3522 3564 3538 3550 3535 3570 3542 3543 3524 3602 3501 3504 3548 3561 3525 3567 3559 3548 3477 3502 3566 3528 3558 3569 3525 3540 3553 3539 3457 3565 3546 3561 3532 3557 3590 3487 3492 3579 3507 3504 3486 3533 3577 3574 3549 3546 3507 3559 3586 3537 3510 3523 3531 3544 3527 3559 3529 3519 3548 3531 3561 3497 3515 3558 3562 3532 3493 3567 3543 3486 3517 3481 3530 3551 3505 3569 3569 3541 3531 3593 3557 3557 3586 3537 3568 3555 3598 3484 3501 3545 3508 3571 3513 3521 3581 3478 3451 3505 3496 3586 3553 3543 3538 3499 3518 3534 3563 3570 3590 3490 3541 3577 3555 3571 3533 3526 3505 3506 3574 3493 3535 3521 3556 3536 3578 3562 3519 3520 3580 3563 3567 3582 3546 3503 3489 3559 3552 3545 3575 3540 3516 3506 3482 3477 3557 3502 3497 3530 3566 3476 3545 3537 3563 3587 3559 3527 3525 3525 3588 3597 3515 3600 3577 3493 3529 3562 3509 3503 3556 3563 3574 3572 3563 3539 3560 3568 3574 3573 3539 3573 3498 3558 3580 3557 3540 3559 3467 3567 3486 3536 3530 3555 3576 3539 3477 3519 3545 3524 3550 3557 3608 3555 3469 3510 3544 3582 3555 3493 3510 3557 3560 3540 3489 3524 3560 3561 3525 3521 3578 3513 3561 3560 3542 3554 3439 3557 3498 3509 3541 3525 3591 3571 3501 3550 3542 3549 3588 3452 3571 3557 3523 3460 3569 3513 3551 3560 3580 3554 3574 3584 3539 3524 3468 3539 3544 3530 3498 3507 3567 3544 3553 3555 3479 3578 3537 3542 3578 3554 3570 3579 3561 3540 3522 3585 3533 3505 3600 3477 3512 3571 3503 3540 3548 3480 3531 3443 3502 3562 3536 3524 3561 3526 3529 3524 3511 3533 3553 3568 3543 3465 3557 3567 3527 3479 3508 3465 3519 3541 3554 3543 3558 3538 3537 3462 3562 3526 3555 3560 3546 3573 3506 3497 3571 3530 3559 3577 3528 3568 3500 3521 3530 3565 3540 3523 3566 3492 3458 3599 3559 3548 3528 3522 3557 3518 3497 3549 3532 3547 3537 3542 3517 3528 3592 3551 3493 3537 3562 3543 3556 3538 3579 3593 3550 3488 3572 3527 3569 3534 3534 3533 3539 3529 3575 3518 3569 3567 3504 3539 3545 3561 3517 3491 3541 3531 3602 3484 3608 3547 3498 3529 3556 3558 3535 3483 3516 3461 3543 3564 3519 3536 3570 3538 3506 3536 3554 3465 3554 3560 3491 3569 3469 3526 3522 3555 3545 3562 3528 3498 3554 3575 3561 3518 3531 3551 3588 3587 3553 3608 3541 3565 3576 3584 3486 3519 3554 3469 3491 3546 3565 3515 3504 3549 3532 3576 3503 3503 3519 3533 3480 3555 3551 3573 3531 3544 3536 3612 3581 3578 3544 3552 3499 3559 3536 3573 3557 3537 3565 3491 3603 3471 3483 3579 3541 3537 3518 3574 3551

Tree=0
num_leaves=38
num_cat=0
split_feature=29 35 29 29 32 32 29 39 31 29 0 33 31 32 33 31 41 41 31 35 33 31 31 35 29 9 0 9 29 9 9 31 53 61 32 33 39
split_gain=74287.1 19164.6 17298 7091.81 2860.25 2403.41 2322.62 2085.15 1821.03 1730.98 1169.82 985.905 942.489 753.073 745.497 637.765 610.193 535.92 533.296 496.517 386.737 384.156 350.814 350.443 340.191 338.358 496.488 298.791 294.647 273.986 272.158 258.822 252.351 249.193 243.881 228.411 225.907
threshold=9.552500000000002 11.202291666666669 6.9375000000000009 14.067500000000001 2.4657928062679049 3.1745458954259882 8.3075000000000028 177.34750000000003 10.258750000000003 5.8125000000000009 5.5000000000000009 13.190625000000002 10.550416666666669 1.7643010872583462 12.849583333333337 14.492083333333335 33.720629576406665 33.720629576406665 9.4720833333333356 10.068854166666668 8.3081250000000022 11.553333333333336 8.4187500000000028 8.8543750000000028 5.0675000000000017 -0.5 21.500000000000004 -0.5 16.990000000000006 0.25881904510252057 0.78656609248549303 12.225000000000003 46.917282196969701 4.4428538710830647 1.4838245907419576 9.0512500000000031 142.09750000000003
decision_type=2 2 2 2 2 2 2 2 2 2 2 2 2 2 2 2 2 2 2 2 2 2 2 2 2 2 2 2 2 2 2 2 2 2 2 2 2
left_child=2 4 9 7 8 11 16 10 13 24 -3 -5 17 20 27 25 18 22 36 -6 -2 -10 -8 -15 -1 31 -27 -7 -16 -11 -14 -12 -19 -9 -13 -31 -4
right_child=1 3 6 5 19 14 12 33 21 29 15 34 30 23 28 -17 -18 32 -20 -21 -22 -23 -24 -25 -26 26 -28 -29 -30 35 -32 -33 -34 -35 -36 -37 -38
leaf_value=9.3674219290883904 9.4294454043472111 9.4471688504225551 9.4054324002295253 9.5009822181425285 9.4778292987245063 9.5180617613457095 9.4206861821067296 9.5303104781686443 9.4599754118345523 9.4116822870426553 9.4562454674059584 9.5136247402489644 9.459167495067156 9.4490454099685817 9.5604616629108747 9.5025102907846239 9.4463804087816072 9.458769935845611 9.4272028857698693 9.5069032212694964 9.4442163361915981 9.475430636599004 9.4328495876843341 9.4696831565238213 9.3809999437180736 9.4996890133034082 9.4610303134747884 9.557405232795734 9.6005998481552854 9.3906285901040683 9.4394494700501426 9.4786811129914454 9.4316648951756008 9.5028145715799219 9.5496937246424345 9.4036276516914281 9.415693142099693
leaf_weight=750 596 216 792 346 415 68 786 243 1254 245 187 62 423 481 74 382 162 233 726 210 1402 546 1945 326 1085 299 107 163 135 1182 271 350 124 121 192 445 1424
leaf_count=750 596 216 792 346 415 68 786 243 1254 245 187 62 423 481 74 382 162 233 726 210 1402 546 1945 326 1085 299 107 163 135 1182 271 350 124 121 192 445 1424
internal_value=9.43966 9.47445 9.41281 9.5058 9.4568 9.53807 9.42721 9.48817 9.45261 9.38605 9.48034 9.51798 9.4353 9.44487 9.56538 9.48574 9.41736 9.43166 9.41577 9.48763 9.43981 9.46467 9.42935 9.45739 9.37544 9.47893 9.48953 9.54596 9.58662 9.39646 9.45147 9.47088 9.44936 9.52124 9.54101 9.39418 9.41202
internal_weight=18768 8175 10593 2945 5230 1040 6886 1905 4605 3707 1541 600 3782 2805 440 1325 3104 3088 2942 625 1998 1800 2731 807 1835 943 406 231 209 1872 694 537 357 364 254 1627 2216
internal_count=18768 8175 10593 2945 5230 1040 6886 1905 4605 3707 1541 600 3782 2805 440 1325 3104 3088 2942 625 1998 1800 2731 807 1835 943 406 231 209 1872 694 537 357 364 254 1627 2216
is_linear=0
shrinkage=1


Tree=1
num_leaves=38
num_cat=0
split_feature=30 35 29 29 30 30 32 0 29 39 32 8 31 31 0 32 31 32 35 31 29 29 9 0 8 9 35 30 51 29 38 39 32 31 31 30 32
split_gain=77476.5 18869.9 14535.3 6621.92 2854.93 2530.61 2265.14 1861.36 1443.26 1372.21 1288.57 918.721 787.505 582.088 549.967 526.173 500.252 488.95 445.155 418.627 377.374 329.561 324.133 417.985 304.697 299.574 286.657 256.35 255.435 248.196 239.966 237.095 203.961 195.348 189.248 189.191 181.733
threshold=9.4425000000000008 11.202291666666669 6.8625000000000016 14.067500000000001 11.232500000000002 8.0175000000000018 3.1745458954259882 5.5000000000000009 5.8125000000000009 177.34750000000003 2.6175183057560156 -0.78656609248549292 10.92041666666667 14.200416666666667 17.500000000000004 1.6573685171518189 10.550416666666669 2.0124984453257562 9.4684375000000021 9.5987500000000026 8.9525000000000023 5.0675000000000017 -0.5 21.500000000000004 -0.70710678118654735 -0.5 10.102395833333336 6.5625000000000009 36.913541666666674 9.7325000000000017 139.41000000000003 175.12592105263158 2.1180325786305225 15.109583333333335 12.225000000000003 7.3225000000000007 2.2765892644988015
decision_type=2 2 2 2 2 2 2 2 2 2 2 2 2 2 2 2 2 2 2 2 2 2 2 2 2 2 2 2 2 2 2 2 2 2 2 2 2
left_child=2 4 8 7 16 19 14 -3 21 13 18 -8 20 22 -5 -16 17 29 -6 35 -7 -1 34 32 -15 28 -12 -10 -13 -2 -14 -20 -24 36 -9 -4 -11
right_child=1 3 5 6 10 12 11 9 27 33 26 25 30 24 15 -17 -18 -19 31 -21 -22 -23 23 -25 -26 -27 -28 -29 -30 -31 -32 -33 -34 -35 -36 -37 -38
leaf_value=-0.071127209671903113 -0.0034534916578817711 0.0059023537415882942 -0.034649849176305314 0.062912771191516045 0.016258598885934918 -0.014651811752504995 0.16334536486074194 0.017215862567109014 -0.049068070238960648 0.056888681875165076 0.047227199430407311 0.10348477818327323 -0.0016703430300211363 0.092820414988561348 0.061786213583117526 0.1068646281594923 0.019093152094443452 0.017567088915892114 0.024572360081995686 -0.013453641388270618 -0.0047366984254581116 -0.057760386114470451 0.051151156913706766 0.020467648145238972 0.055818323583193663 0.12040007671730596 0.075345348986960506 -0.037028777145094997 0.04728861936298788 0.0074380511784651031 0.021935843862402694 0.039129843646061341 0.08138602781853517 0.10290564076820034 0.037861302695888353 -0.02553220435415117 0.083521960165169468
leaf_weight=750 916 212 1015 300 611 1906 107 164 921 95 213 67 172 62 91 199 980 673 477 447 1728 1084 213 88 377 237 147 779 28 1071 248 600 72 77 295 1158 188
leaf_count=750 916 212 1015 300 611 1906 107 164 921 95 213 67 172 62 91 199 980 673 477 447 1728 1084 213 88 377 237 147 779 28 1071 248 600 72 77 295 1158 188
internal_value=2.86672e-07 0.0340888 -0.0285851 0.0661894 0.0178773 -0.0152426 0.0974127 0.0487409 -0.0537784 0.0543065 0.0323874 0.123878 -0.0076358 0.0467811 0.0776574 0.0928136 0.00971095 0.00625222 0.0267489 -0.0270101 -0.00993803 -0.0632395 0.0391941 0.0498481 0.061116 0.110994 0.0587726 -0.0435603 0.087163 0.00241736 0.0122753 0.0326928 0.0588826 0.0808023 0.030504 -0.0297961 0.0746652
internal_weight=18768 8560 10208 2872 5688 6674 1029 1843 3534 1631 2048 439 4054 1271 590 290 3640 2660 1688 2620 3634 1834 832 373 439 332 360 1700 95 1987 420 1077 285 360 459 2173 283
internal_count=18768 8560 10208 2872 5688 6674 1029 1843 3534 1631 2048 439 4054 1271 590 290 3640 2660 1688 2620 3634 1834 832 373 439 332 360 1700 95 1987 420 1077 285 360 459 2173 283
is_linear=0
shrinkage=0.0153641


Tree=2
num_leaves=38
num_cat=0
split_feature=28 28 28 30 32 28 30 33 28 28 33 28 28 28 30 32 52 33 32 33 32 32 38 30 52 28 32 28 34 32 52 32 12 5 30 32 39
split_gain=77316.9 18953.2 18029.3 4256.29 2951.8 2484.73 2418.17 1291.41 1103.96 1036.28 823.796 429.648 423.288 411.248 399.729 399.708 369.594 363.263 361.823 359.148 318.811 309.87 295.409 275.503 240.619 239.672 217.217 176.835 157.744 154.931 145.761 137.317 136.385 133.316 132.613 130.274 125.457
threshold=9.7975000000000012 13.867500000000001 7.347500000000001 11.097500000000002 3.0944749841106156 6.0075000000000012 8.7175000000000029 12.485416666666667 12.217500000000003 16.930000000000003 11.151875000000002 8.1875000000000018 9.0825000000000014 5.2425000000000006 9.2825000000000006 2.9038056138862651 5.76497758320322 10.867500000000001 1.5216589083242853 12.429583333333335 2.5614878480778613 1.7975877352197931 139.41000000000003 6.8325000000000005 12.795828001755977 16.302500000000006 2.4170645038947085 11.937500000000002 2.2267053926832951 2.4657928062679049 12.348628243253417 1.9939234754426425 7.5000000000000009 175.50000000000003 10.367500000000001 4.0123650171525389 171.48000000000005
decision_type=2 2 2 2 2 2 2 2 2 2 2 2 2 2 2 2 2 2 2 2 2 2 2 2 2 2 2 2 2 2 2 2 2 2 2 2 2
left_child=2 3 5 10 7 13 11 21 19 24 14 -4 28 -1 -2 17 -11 31 -9 20 32 -3 -12 -7 -6 -20 34 -24 -8 -16 -23 -10 -5 -21 -14 -18 -19
right_child=1 4 6 8 9 23 12 18 15 16 22 -13 26 -15 29 -17 35 36 25 33 -22 30 27 -25 -26 -27 -28 -29 -30 -31 -32 -33 -34 -35 -36 -37 -38
leaf_value=-0.069056223919690227 -0.0010447893655873479 0.035470170441695717 -0.024949671246537641 0.023522468354763001 0.10187262878755468 -0.043694475869615668 -0.0082496856749155467 0.06842426537547526 0.025387246480764222 0.1573109096575587 0.0094943256533911984 -0.013773174913496861 0.00084107370393097451 -0.055350805373262826 0.012491129128055832 0.076315107420437331 0.10265409685337581 0.052095317888593846 0.086328067291817953 0.069178474251536115 0.046157286400575454 0.069131795075319885 0.027209268956485008 -0.033128469066583212 0.062939357546427183 0.1147281834268669 0.026277760667856736 0.044299350016899081 0.0022922660796717894 0.028163447939041124 0.043702176868546792 0.046091850816281331 0.034133745463603711 0.043700522267287774 0.011215787230582227 0.13446411666928859 0.069141064463056331
leaf_weight=908 548 165 1560 777 243 1144 1445 136 140 128 155 1697 1186 1238 1837 163 66 287 167 67 262 201 414 1206 47 134 104 221 436 162 76 169 458 192 385 76 168
leaf_count=908 548 165 1560 777 243 1144 1445 136 140 128 155 1697 1186 1238 1837 163 66 287 167 67 262 201 414 1206 47 134 104 221 436 162 76 169 458 192 385 76 168
internal_value=6.44515e-07 0.0383975 -0.025325 0.0264204 0.0884844 -0.0492041 -0.00956499 0.0708652 0.0408272 0.116077 0.0148339 -0.0191285 -0.000804517 -0.0611604 0.0105797 0.0543986 0.137862 0.0496889 0.089613 0.0336531 0.030748 0.0522716 0.0285384 -0.038278 0.0956487 0.0990933 0.00481229 0.0331789 -0.00580617 0.0137661 0.0622206 0.0367517 0.0274665 0.0503783 0.00338557 0.119976 0.0584389
internal_weight=18768 7459 11309 6020 1439 4496 6813 879 2683 560 3337 3257 3556 2146 2547 927 270 764 437 1756 1497 442 790 2350 290 301 1675 635 1881 1999 277 309 1235 259 1571 142 455
internal_count=18768 7459 11309 6020 1439 4496 6813 879 2683 560 3337 3257 3556 2146 2547 927 270 764 437 1756 1497 442 790 2350 290 301 1675 635 1881 1999 277 309 1235 259 1571 142 455
is_linear=0
shrinkage=0.0153641


Tree=3
num_leaves=38
num_cat=0
split_feature=30 29 29 32 30 30 33 29 33 52 33 32 39 29 29 33 33 0 32 33 33 29 33 34 0 29 51 30 30 32 39 33 41 33 52 0 33
split_gain=72893.8 16679.1 13668.5 4877.11 4657.97 2384.73 2092.81 1357.88 1225.27 1166.14 1134.98 937.179 666.556 658.319 652.673 487.219 428.697 404.325 341.549 322.119 318.736 310.924 306.404 304.107 291.946 262.886 242.449 241.07 226.651 226.408 226.121 220.103 226.387 213.545 200.11 197.74 178.601
threshold=9.4425000000000008 13.312500000000002 6.8625000000000016 2.7151062619688262 11.232500000000002 8.0175000000000018 12.551666666666669 5.8125000000000009 11.072708333333335 12.106177499462854 11.151875000000002 2.2953982764893115 174.87500000000003 9.3125000000000018 16.390000000000004 11.968125000000002 10.756875000000003 4.5000000000000009 2.0470117435670656 13.092708333333336 10.946041666666668 5.0675000000000017 10.909375000000001 1.6785181773305886 21.500000000000004 9.7325000000000017 38.289375000000007 6.5925000000000002 7.3225000000000007 2.9977465021123924 175.63250000000002 13.961666666666668 19.713500578722265 15.041041666666667 13.452349632803676 5.5000000000000009 11.325208333333336
decision_type=2 2 2 2 2 2 2 2 2 2 2 2 2 2 2 2 2 2 2 2 2 2 2 2 2 2 2 2 2 2 2 2 2 2 2 2 2
left_child=2 4 7 6 10 20 22 21 11 14 18 30 19 -7 24 -16 -15 -12 25 35 28 -1 -3 -14 36 -2 -11 -9 -4 -13 -6 32 -19 -8 -25 -10 -5
right_child=1 3 5 9 8 13 33 27 12 26 17 29 23 16 15 -17 -18 31 -20 -21 -22 -23 -24 34 -26 -27 -28 -29 -30 -31 -32 -33 -34 -35 -36 -37 -38
leaf_value=-0.068994886630421678 0.00044453098310024715 0.026024442322709004 -0.033765048938545081 0.08472105074028459 0.012549486623265443 -0.012042592072264274 0.07619987708073192 -0.047325630801048568 -0.0039966616957028238 0.079993005786643714 0.0011746516365052498 0.040530132662834222 0.041988072659851695 -0.0035073807202068139 0.094863965798836172 0.14267636763907438 0.01674959819830063 0.027900271316789019 0.017970685984969762 0.055118934589942201 -0.012220689147571068 -0.056011856725327727 0.04753971606334563 0.087325125029565784 0.053975727304686701 0.010066973920486432 0.037297465455211898 -0.035587300710445656 -0.023983695170126388 0.065282247178001601 0.027029128965615195 0.059222839326365254 0.067145927089417856 0.10598501202956011 0.054761141185502307 0.037405004273299777 0.1130807089050653
leaf_weight=750 1214 331 999 84 449 2596 299 963 29 106 105 462 72 1144 69 225 314 533 675 311 336 1084 299 169 32 1496 46 737 1285 109 591 71 37 74 64 430 178
leaf_count=750 1214 331 999 84 449 2596 299 963 29 106 105 462 72 1144 69 225 314 533 675 311 336 1084 299 169 32 1496 46 737 1285 109 591 71 37 74 64 430 178
internal_value=1.04041e-06 0.033066 -0.027726 0.0754754 0.0222192 -0.0147875 0.0533679 -0.0521566 0.0379682 0.105399 0.0119766 0.0294795 0.0506754 -0.00740319 0.115229 0.131585 0.000858278 0.0291273 0.00819421 0.0430216 -0.0262108 -0.0613337 0.036257 0.0699244 0.0987323 0.00575704 0.0671908 -0.0422453 -0.0282666 0.0452933 0.0207843 0.0337028 0.0304886 0.0822056 0.0784789 0.0347881 0.104117
internal_weight=18768 8560 10208 1743 6817 6674 1003 3534 2686 740 4131 1611 1075 4054 588 294 1458 746 3385 770 2620 1834 630 305 294 2710 152 1700 2284 571 1040 641 570 373 233 459 262
internal_count=18768 8560 10208 1743 6817 6674 1003 3534 2686 740 4131 1611 1075 4054 588 294 1458 746 3385 770 2620 1834 630 305 294 2710 152 1700 2284 571 1040 641 570 373 233 459 262
is_linear=0
shrinkage=0.0153641


Tree=4
num_leaves=38
num_cat=0
split_feature=28 28 28 30 32 30 28 33 31 28 31 32 31 28 28 30 32 52 32 32 33 30 37 28 52 28 37 31 32 31 33 31 33 37 31 33 42
split_gain=72863.2 18149.8 16878.7 3523.28 2781.17 2584.96 2333.34 1208.15 1197.4 974.055 850.524 745.502 624.384 472.2 387.986 361.497 353.921 331.283 327.691 323.18 317.918 255.466 254.509 244.538 237.735 236.916 176.26 217.255 175.794 250.805 172.005 169.247 157.618 154.943 145.322 142.396 133.241
threshold=9.9425000000000008 7.347500000000001 13.867500000000001 11.052500000000002 3.1745458954259882 8.802500000000002 6.0075000000000012 12.485416666666667 13.92041666666667 16.930000000000003 12.157500000000001 2.6784802862451156 10.991250000000003 8.1875000000000018 5.0675000000000017 9.4125000000000014 1.5216589083242853 5.76497758320322 2.4170645038947085 2.1180325786305225 12.429583333333335 6.7125000000000012 176.94500000000002 9.0825000000000014 12.666669698328713 16.302500000000006 154.80750000000003 12.847083333333334 1.6290175956333384 10.307083333333335 10.083541666666669 8.9970833333333342 11.072708333333335 141.48722222222224 14.626250000000001 8.3081250000000022 173.44187500000007
decision_type=2 2 2 2 2 2 2 2 2 2 2 2 2 2 2 2 2 2 2 2 2 2 2 2 2 2 2 2 2 2 2 2 2 2 2 2 2
left_child=1 6 3 10 7 13 14 18 11 24 15 20 19 -3 -1 -2 -9 -11 32 23 28 -8 36 -7 -6 -18 -14 -28 29 -5 -13 -15 -4 -12 -35 -30 -10
right_child=2 5 4 8 9 12 21 16 22 17 33 30 26 31 -16 -17 25 -19 -20 -21 -22 -23 -24 -25 -26 -27 27 -29 35 -31 -32 -33 -34 34 -36 -37 -38
leaf_value=-0.068247631833575351 0.0016551126137357218 -0.024017403225106492 0.030270736348777156 0.011751462713125237 0.099813891270394708 -0.008034411092167142 -0.043075826116690377 0.06630497851244041 0.053826189248170189 0.15374271904488609 0.014059202322863508 0.047898324045891082 0.0047402557251449524 -0.01704718286382283 -0.05447563571583023 0.015180825546365627 0.083840811421072664 0.11776843547641634 0.070031994680711737 0.012081791375907168 0.048062761181415802 -0.032785470034968962 0.087026980105670795 0.00096398998404829018 0.061241002679992773 0.11150369687306171 0.018938607138964204 0.058526592303296876 0.023855616839361382 0.029650843080411094 0.071251411761262679 -0.007905889693451509 0.05269468933359709 0.032491291636302905 0.053927060400974162 0.038634999170338143 0.085405571311149384
leaf_weight=755 623 1595 140 264 225 1451 997 136 326 124 78 210 184 1006 1391 1857 171 138 154 347 237 1353 84 1401 48 141 272 37 218 621 120 913 162 309 100 544 36
leaf_count=755 623 1595 140 264 225 1451 997 136 326 124 78 210 184 1006 1391 1857 171 138 154 347 237 1353 84 1401 48 141 272 37 218 621 120 913 162 309 100 544 36
internal_value=1.3749e-06 -0.0235223 0.0389582 0.0269466 0.0859095 -0.0084075 -0.0477452 0.0694248 0.0397858 0.113699 0.0154324 0.0351483 0.00057022 -0.0178391 -0.0593315 0.0117838 0.087364 0.134982 0.0517453 -0.00191074 0.0314055 -0.0371571 0.0627603 -0.00361452 0.0931215 0.0964565 0.0166585 0.0237416 0.0289985 0.0243183 0.0564588 -0.0127004 0.042348 0.03399 0.0377752 0.0344201 0.0570485
internal_weight=18768 11702 7066 5627 1439 7206 4496 904 2660 535 2967 2214 3692 3514 2146 2480 448 262 456 3199 1884 2350 446 2852 273 312 493 309 1647 885 330 1919 302 487 409 762 362
internal_count=18768 11702 7066 5627 1439 7206 4496 904 2660 535 2967 2214 3692 3514 2146 2480 448 262 456 3199 1884 2350 446 2852 273 312 493 309 1647 885 330 1919 302 487 409 762 362
is_linear=0
shrinkage=0.0153641


Tree=5
num_leaves=38
num_cat=0
split_feature=30 29 29 30 33 30 29 29 33 33 34 9 39 29 34 39 34 33 38 30 33 33 9 34 30 29 39 30 51 33 33 41 9 33 52 33 39
split_gain=68566.4 15704.7 12856.3 4382.03 3718.72 2249.15 1593.39 1279.44 1148.54 1071.57 979.427 654.39 635.251 619.559 559.161 514.29 447.127 407.045 379.293 324.561 303.018 302.233 293.832 286.293 283.076 231.348 216.459 214.42 213.306 207.08 202.094 223.893 196.639 194.048 191.778 189.757 182.744
threshold=9.4425000000000008 13.312500000000002 6.8625000000000016 11.232500000000002 11.968125000000002 8.0175000000000018 16.390000000000004 5.6575000000000015 11.072708333333335 11.151875000000002 2.5504493061572746 -0.70710678118654757 174.87500000000003 9.3125000000000018 2.091582289309172 178.56750000000002 2.4574184753928647 10.582604166666668 136.73500000000004 10.102500000000001 13.749166666666669 10.946041666666668 0.1294095225512602 1.6785181773305886 6.5625000000000009 4.9125000000000005 175.87250000000003 7.3225000000000007 36.485000000000007 9.4322916666666679 13.961666666666668 19.713500578722265 -0.5 13.190625000000002 13.452349632803676 10.544375000000002 144.60750000000004
decision_type=2 2 2 2 2 2 2 2 2 2 2 2 2 2 2 2 2 2 2 2 2 2 2 2 2 2 2 2 2 2 2 2 2 2 2 2 2
left_child=2 3 7 9 10 21 15 25 14 19 29 -12 20 -7 26 32 33 -15 -11 -2 -10 27 -18 -14 -9 -1 -5 -4 -16 -3 31 -20 -6 -8 -25 -13 -21
right_child=1 4 5 8 6 13 16 24 12 18 11 35 23 17 28 -17 22 -19 30 36 -22 -23 -24 34 -26 -27 -28 -29 -30 -31 -32 -33 -34 -35 -36 -37 -38
leaf_value=-0.068407096513767154 0.0028068447142468589 0.018640980306799778 -0.032785189471933381 0.008668474595646198 0.051236310982528233 -0.011670957688663263 0.06556850881814677 -0.047161406878082526 0.035955585264575832 0.0054654051561973012 0.035099414501551046 0.058932480496693584 0.040807716329285378 -0.0036246112163782129 0.044517381246712971 0.10242069754057108 0.11283642134170556 0.015584197825989153 0.027549965079497016 -0.009614093550990771 0.058124251322000123 -0.011812390461863071 0.14590943601457532 0.084872471488511042 -0.035197120003415724 -0.056181163630794881 0.025475476481877448 -0.023271526463575481 0.028925365596892551 0.0411945702925181 0.058104821799904449 0.066665467821228522 0.075476916461177684 0.11095254523845859 0.053004948944410879 0.088491692045382944 0.013427295273545969
leaf_weight=598 1566 141 999 291 114 2596 45 1128 573 140 105 74 72 1119 449 148 140 339 499 85 197 336 135 169 809 999 480 1285 391 308 70 37 288 49 64 196 1734
leaf_count=598 1566 141 999 291 114 2596 45 1128 573 140 105 74 72 1119 449 148 140 339 499 85 197 336 135 169 809 999 480 1285 391 308 70 37 288 49 64 196 1734
internal_value=1.73771e-06 0.0320702 -0.0268897 0.021545 0.0732221 -0.0143415 0.0944766 -0.0505833 0.0368204 0.0116105 0.0494862 0.0678191 0.0491233 -0.00717021 0.0286017 0.077802 0.11923 0.000844366 0.0282751 0.00793524 0.0416519 -0.0254353 0.129242 0.0679142 -0.0421719 -0.0607736 0.019139 -0.0274372 0.0372752 0.0341327 0.0335383 0.0302931 0.0686548 0.0895595 0.0762145 0.0804796 0.0123489
internal_weight=18768 8560 10208 6817 1743 6674 919 3534 2686 4131 824 375 1075 4054 1611 550 369 1458 746 3385 770 2620 275 305 1937 1597 771 2284 840 449 606 536 402 94 233 270 1819
internal_count=18768 8560 10208 6817 1743 6674 919 3534 2686 4131 824 375 1075 4054 1611 550 369 1458 746 3385 770 2620 275 305 1937 1597 771 2284 840 449 606 536 402 94 233 270 1819
is_linear=0
shrinkage=0.0153641


Tree=6
num_leaves=38
num_cat=0
split_feature=28 28 28 30 28 30 28 28 33 33 33 39 28 28 28 33 33 30 49 39 30 49 28 30 52 52 39 49 38 33 30 30 33 41 41 5 28
split_gain=68683.7 17075.3 15912.9 3296.98 2387.43 2257.09 2009.51 983.788 847.155 750.016 659.18 462.571 452.059 446.069 392.976 344.433 314.994 294.463 249.003 244.826 230.439 226.519 210.168 206.565 198.26 196.735 164.856 129.961 128.744 152.932 125.527 125.452 124.838 123.173 119.753 112.886 110.219
threshold=9.9425000000000008 7.4225000000000003 13.867500000000001 11.052500000000002 6.1675000000000013 8.802500000000002 17.502500000000005 12.217500000000003 13.003125000000001 11.072708333333335 11.151875000000002 176.84750000000003 5.2425000000000006 9.1318750000000026 8.3325000000000014 10.867500000000001 12.429583333333335 9.4125000000000014 41.445416666666674 184.65250000000003 10.812500000000002 39.583750000000009 11.937500000000002 6.9075000000000015 11.933088587963153 13.452349632803676 175.12592105263158 42.579583333333339 166.37750000000003 13.444166666666668 15.210000000000003 12.572500000000002 9.8572916666666686 30.1441477124709 27.035772384336436 175.50000000000003 8.3075000000000028
decision_type=2 2 2 2 2 2 2 2 2 2 2 2 2 2 2 2 2 2 2 2 2 2 2 2 2 2 2 2 2 2 2 2 2 2 2 2 2
left_child=1 4 3 10 12 14 9 16 21 18 17 24 -1 33 -3 27 26 -2 32 30 -15 -8 -12 -6 28 -13 -5 -9 -11 -30 -17 -28 -4 36 -34 -18 -7
right_child=2 5 6 7 23 13 8 15 -10 11 22 25 -14 20 -16 19 35 -19 -20 -21 -22 -23 -24 -25 -26 -27 31 -29 29 -31 -32 -33 34 -35 -36 -37 -38
leaf_value=-0.065007796609258983 0.00082378017142240077 -0.021928442092132301 0.043036467916508718 0.022281141629281045 -0.039259305766798466 -0.013214242455344678 0.10629166937457947 0.047414986561391384 0.13630691152554719 0.064540974587922351 0.021945652691049856 0.097582248081644229 -0.051140571113858994 0.0031709493596992501 -0.011428161754021574 0.051155432844293781 0.065164870327864291 0.01395541186732892 0.029302091935265021 0.083532397252315829 0.016671656055650963 0.069190051987744694 0.039529408863502716 -0.029969884409373791 0.046511453001964818 0.058583461188834104 0.02883962394138111 0.02899638325046126 0.069026369070628396 0.096687248829611716 0.073419513064368239 0.040881050055693438 0.04371397175988246 0.0052150004667334167 0.07921727916684132 0.041357916555977918 -0.003969229704430974
leaf_weight=908 529 1732 64 551 1096 412 84 226 198 177 508 316 1466 1473 1639 398 65 1694 88 83 374 79 236 1187 74 36 609 155 100 101 73 313 32 250 90 187 1165
leaf_count=908 529 1732 64 551 1096 412 84 226 198 177 508 316 1466 1473 1639 398 65 1694 88 83 374 79 236 1187 74 36 609 155 100 101 73 313 32 250 90 187 1165
internal_value=2.05821e-06 -0.022837 0.0378251 0.0261621 -0.0456629 -0.00774675 0.0834134 0.0385822 0.114832 0.0728572 0.0150238 0.0803553 -0.0564535 0.00058355 -0.0168249 0.0512802 0.0316903 0.0108312 0.0507789 0.0590368 0.00590744 0.0885022 0.0275397 -0.034435 0.0699296 0.0936577 0.0289605 0.0399564 0.0744654 0.0830738 0.0546596 0.0329418 0.0608636 -0.00479871 0.0700611 0.0475829 -0.00638702
internal_weight=18768 11702 7066 5627 4657 7045 1439 2660 361 1078 2967 804 2374 3674 3371 935 1725 2223 274 554 1847 163 744 2283 452 352 1473 381 378 201 471 922 186 1827 122 252 1577
internal_count=18768 11702 7066 5627 4657 7045 1439 2660 361 1078 2967 804 2374 3674 3371 935 1725 2223 274 554 1847 163 744 2283 452 352 1473 381 378 201 471 922 186 1827 122 252 1577
is_linear=0
shrinkage=0.0153641


Tree=7
num_leaves=38
num_cat=0
split_feature=28 28 28 30 32 28 30 36 33 28 33 39 28 28 28 32 32 30 32 33 33 32 38 30 28 33 30 51 30 28 32 41 28 33 39 48 33
split_gain=66598.5 16333.6 15468.9 3620.51 2593.83 2127.47 2055.06 1129.06 1109.52 896.285 650.313 437.974 374.623 369.892 354.526 351.14 332.927 326.719 310.31 288.1 249.305 248.625 244.389 230.164 214.874 185.619 155.397 146.297 140.428 139.058 134.871 128.775 115.842 114.856 111.687 107.048 101.919
threshold=9.7975000000000012 13.867500000000001 7.347500000000001 11.012500000000001 3.1745458954259882 6.0075000000000012 8.7175000000000029 2.4094959096651523 12.485416666666667 16.930000000000003 11.151875000000002 179.81750000000002 8.1275000000000031 8.802500000000002 5.0675000000000017 2.5376830766618439 1.5216589083242853 9.2825000000000006 1.7975877352197931 14.092500000000003 13.190625000000002 2.3350129356680633 139.41000000000003 6.9075000000000015 16.302500000000006 12.697291666666667 10.367500000000001 38.202916666666674 13.382500000000002 11.937500000000002 2.4657928062679049 16.334696310610376 11.507500000000002 10.111458333333335 166.52718750000005 53.855000000000011 13.961666666666668
decision_type=2 2 2 2 2 2 2 2 2 2 2 2 2 2 2 2 2 2 2 2 2 2 2 2 2 2 2 2 2 2 2 2 2 2 2 2 2
left_child=2 3 5 10 8 14 12 15 18 28 17 20 -4 -8 -1 32 -10 -2 -3 -11 27 26 -12 -7 -18 -13 -15 -9 -6 -24 -19 -23 -5 -29 -22 -20 -26
right_child=1 4 6 7 9 23 13 11 16 19 22 25 -14 21 -16 -17 24 30 35 -21 34 31 29 -25 36 -27 -28 33 -30 -31 -32 -33 -34 -35 -36 -37 -38
leaf_value=-0.065207348821170616 -0.00083122747294337731 0.032325098384395762 -0.023552903978261739 0.022334687018215161 0.074274087760084567 -0.040038115977728217 -0.0074065633284177285 0.050493760376727405 0.062993728359527268 0.11826584526740466 0.0085880184538291108 0.06127889263046668 -0.013059881204682544 -0.00078368784349493105 -0.052042686978958072 0.044945788869303616 0.080205248270415933 0.01141034242089083 0.065147363128222502 0.15495837582584987 0.048688096627028915 0.055006392289559357 0.024954159245597327 -0.030363548629175216 0.089195974311548756 0.09760056877159505 0.0093214990593010749 0.0021312999062371579 0.097981289661157767 0.040565043630561119 0.02639775549790762 0.015423456467916699 0.031344623677904741 0.034529144618063917 0.068453900628580741 0.044528432256947054 0.11790449995609557
leaf_weight=755 548 165 1446 799 102 1249 1287 143 136 184 154 206 1811 1635 1391 284 171 1772 201 78 258 22 399 1101 57 41 460 28 171 206 154 152 591 341 96 90 84
leaf_count=755 548 165 1446 799 102 1249 1287 143 136 184 154 206 1811 1635 1391 284 171 1772 201 78 258 22 399 1101 57 41 460 28 171 206 154 152 591 341 96 90 84
internal_value=2.40668e-06 0.0356386 -0.0235023 0.0245199 0.0821355 -0.045621 -0.0089042 0.0373522 0.0662165 0.108971 0.0134549 0.0493495 -0.0177205 -0.000828199 -0.0566844 0.0293666 0.0834075 0.0096357 0.0492747 0.129387 0.0441635 0.00290369 0.0258934 -0.0355108 0.0922228 0.0674414 0.00143632 0.0372514 0.0892332 0.0302906 0.0126134 0.0205316 0.0261727 0.0320753 0.0541125 0.0588334 0.106556
internal_weight=18768 7459 11309 6020 1439 4496 6813 2787 904 535 3233 1113 3257 3556 2146 1674 448 2474 456 262 866 2269 759 2350 312 247 2095 512 273 605 1926 174 1390 369 354 291 141
internal_count=18768 7459 11309 6020 1439 4496 6813 2787 904 535 3233 1113 3257 3556 2146 1674 448 2474 456 262 866 2269 759 2350 312 247 2095 512 273 605 1926 174 1390 369 354 291 141
is_linear=0
shrinkage=0.0153641


Tree=8
num_leaves=38
num_cat=0
split_feature=28 28 28 28 28 28 28 35 36 35 52 34 39 28 39 34 39 0 28 8 34 58 0 52 49 28 12 35 35 28 6 35 34 34 0 10 0
split_gain=64580 16050 14957.6 2638.74 2247.57 1913.69 1894.72 729.58 676.239 603.479 492.291 506.914 487.723 425.455 349.679 319.751 296.725 286.277 264.623 259.961 246.181 235.63 202.052 201.266 184.638 184.392 184.074 169.584 167.395 137.1 131.861 131.342 125.612 124.174 123.926 123.791 123.189
threshold=9.9425000000000008 7.4225000000000003 13.867500000000001 11.727500000000001 6.1675000000000013 8.7225000000000019 17.502500000000005 10.658229166666668 3.1082340310998071 9.5033333333333356 12.933448677066371 2.4574184753928647 179.81750000000002 5.2425000000000006 174.20250000000001 2.2798209824551745 185.03000000000003 5.5000000000000009 8.0325000000000006 -0.78656609248549292 2.4226584092740482 49.296573464912285 5.5000000000000009 12.279301223314627 43.41125000000001 6.8625000000000016 5.5000000000000009 12.461458333333335 10.985000000000001 9.1725000000000012 1.0000000180025095e-35 12.396458333333335 2.2598103882238298 3.8002822122760294 18.500000000000004 -0.8783796973249266 5.5000000000000009
decision_type=2 2 2 2 2 2 2 2 2 2 2 2 2 2 2 2 2 2 2 2 2 2 2 2 2 2 2 2 2 2 2 2 2 2 2 2 2
left_child=1 4 3 9 13 18 10 24 -8 16 11 19 26 -1 -13 29 -2 -11 -3 28 -19 33 -17 27 32 -6 36 -10 -4 -7 -18 -14 -5 -22 -16 -24 -9
right_child=2 5 6 7 25 15 8 12 23 17 -12 14 31 -15 34 22 30 20 -20 -21 21 -23 35 -25 -26 -27 -28 -29 -30 -31 -32 -33 -34 -35 -36 -37 -38
leaf_value=-0.063042014394601359 0.0055319099627882187 -0.020737678817726608 0.041316836599268984 0.030851288157682715 -0.037599719880166638 -0.0064555133302827816 0.069754375728439663 0.009105230043075797 0.086491897609070195 0.0044763351426352991 0.046022079684843134 0.069418602879326205 0.061700722255307115 -0.049589081458582408 0.089948830729713686 -0.0025715982829774922 0.014413070397116579 0.021364330201110508 -0.012085290923277602 0.044554351576685733 0.035903585625545513 0.015012982458070832 0.025246528482992813 0.077476237847714069 0.021720956707470259 -0.028821890429908761 0.05388713766502011 0.13041949480507825 0.077368464846787346 0.00051469884544553374 0.028850020256162588 0.089884784217937164 0.050222666731807683 0.064319713369729054 0.1158376726441846 0.0092831602169482341 0.040177447142942947
leaf_weight=908 967 1450 38 275 1184 1097 75 32 26 170 165 223 153 1466 264 261 541 1233 1971 143 438 131 159 24 412 1099 270 236 186 1695 207 56 113 40 59 412 589
leaf_count=908 967 1450 38 275 1184 1097 75 32 26 170 165 223 153 1466 264 261 541 1233 1971 143 438 131 159 24 412 1099 270 236 186 1695 207 56 113 40 59 412 589
internal_value=2.77029e-06 -0.0221435 0.0366785 0.0253711 -0.0442735 -0.00751329 0.0808771 0.0401063 0.111385 0.017856 0.070627 0.0750537 0.0482306 -0.0547433 0.0844871 0.000267015 0.0111559 0.023564 -0.0157544 0.0609502 0.0253244 0.0333248 0.00862509 0.1222 0.0289187 -0.0333794 0.0432402 0.126185 0.0713288 -0.00222443 0.0184203 0.0693941 0.0365343 0.0383282 0.0948015 0.0137414 0.0385825
internal_weight=18768 11702 7066 5627 4657 7045 1439 1900 361 3727 1078 913 1100 2374 546 3624 1715 2012 3421 367 1842 609 832 286 800 2283 891 262 224 2792 748 209 388 478 323 571 621
internal_count=18768 11702 7066 5627 4657 7045 1439 1900 361 3727 1078 913 1100 2374 546 3624 1715 2012 3421 367 1842 609 832 286 800 2283 891 262 224 2792 748 209 388 478 323 571 621
is_linear=0
shrinkage=0.0153641


Tree=9
num_leaves=38
num_cat=0
split_feature=28 28 28 28 32 28 28 33 33 8 32 34 39 33 28 32 32 8 28 34 32 37 29 28 36 37 33 32 61 49 10 32 33 33 32 33 39
split_gain=62615.3 15353.7 14545.6 2907.24 2466.23 2047.35 1665.68 1055.79 904.857 878.902 623.77 539.675 383.957 382.624 345.769 320.463 301.246 294.114 285.423 285.182 266.963 253.091 250.791 248.304 205.143 183.984 179.482 171.69 152.865 151.254 149.316 146.118 137.907 132.775 128.31 125.935 128.717
threshold=9.7975000000000012 13.867500000000001 7.1875000000000009 11.547500000000001 3.1745458954259882 8.5425000000000022 5.8125000000000009 12.485416666666667 10.867500000000001 -0.78656609248549292 2.0124984453257562 2.2938769571471331 179.81750000000002 10.647708333333336 16.930000000000003 1.5216589083242853 2.4170645038947085 -0.78656609248549292 7.767500000000001 2.2798209824551745 2.2221342915002205 135.27250000000004 6.4325000000000001 4.9875000000000016 2.729516985711776 130.83500000000001 9.774791666666669 2.6784802862451156 3.0258288212176558 39.176282467532467 -0.8783796973249266 2.099125193843483 11.072708333333335 13.961666666666668 2.1519338200052669 7.0933333333333346 175.87250000000003
decision_type=2 2 2 2 2 2 2 2 2 2 2 2 2 2 2 2 2 2 2 2 2 2 2 2 2 2 2 2 2 2 2 2 2 2 2 2 2
left_child=2 3 6 11 7 18 23 16 10 -6 -5 13 28 20 29 -9 32 -17 -4 26 35 -13 -8 -1 -14 -21 31 -12 -10 -11 -23 -7 -3 -32 -27 -2 -37
right_child=1 4 5 8 9 19 22 15 12 14 27 21 24 -15 -16 17 -18 -19 -20 25 -22 30 -24 -25 -26 34 -28 -29 -30 -31 33 -33 -34 -35 -36 36 -38
leaf_value=-0.063909101153278025 -0.0062704779259337888 0.027295216125312535 -0.023876039485300492 0.01609262709438929 0.14264502242741381 -0.0075270284995431948 -0.043417484750665751 0.060864639224824019 0.050949601340844253 0.0945592675712595 0.032940893298941398 0.006899010442383763 0.050085302128769049 0.022287515166553515 0.11210301427798229 0.10323962557314596 0.06511638465345955 0.072685421613278067 -0.014644739685823957 -0.0043613453174755406 0.020818545562591547 0.04031377980832062 -0.032992467855207971 -0.052104748582833468 0.083408143075422422 0.0072255033123971258 0.0025010185148098356 0.051206192728340129 0.038215948155097865 0.069566576742730993 0.023145685654104551 0.0058967420480427572 0.04826108987421255 0.049548173281357431 0.024818320889679189 0.003465444170642647 0.01231678964478591
leaf_weight=679 168 140 1279 532 120 1948 880 136 397 131 336 159 83 663 170 171 154 141 2079 270 365 184 1460 1163 98 462 753 194 528 114 711 212 162 48 124 807 747
leaf_count=679 168 140 1279 532 120 1948 880 136 397 131 336 159 83 663 170 171 154 141 2079 270 365 184 1460 1163 98 462 753 194 528 114 711 212 162 48 124 807 747
internal_value=3.08478e-06 0.0345572 -0.0227879 0.0237771 0.0796378 -0.00943949 -0.0455336 0.0641158 0.0380084 0.105805 0.0278621 0.0157646 0.0477388 0.0121214 0.0950377 0.0808848 0.0475901 0.0895312 -0.018163 -0.00166629 0.00888851 0.0248492 -0.0369191 -0.0564677 0.0682574 0.00612833 -0.00395726 0.0396569 0.0436988 0.0830493 0.027872 -0.00620874 0.038586 0.0248381 0.0109612 0.00635595 0.00772212
internal_weight=18768 7459 11309 6020 1439 7127 4182 904 2168 535 1062 3852 1106 2750 415 448 456 312 3358 3769 2087 1102 2340 1842 181 856 2913 530 925 245 943 2160 302 759 586 1722 1554
internal_count=18768 7459 11309 6020 1439 7127 4182 904 2168 535 1062 3852 1106 2750 415 448 456 312 3358 3769 2087 1102 2340 1842 181 856 2913 530 925 245 943 2160 302 759 586 1722 1554
is_linear=0
shrinkage=0.0153641


Tree=10
num_leaves=38
num_cat=0
split_feature=29 35 29 29 35 39 29 29 33 39 0 29 34 9 33 34 33 39 34 49 0 37 39 35 29 39 42 9 34 61 33 29 33 39 8 39 37
split_gain=55065.7 14273.6 12693 5264.16 1838.34 1614.18 1587.12 1430.78 1251.43 1059.62 859.182 749.821 620.737 592.517 558.085 509.445 497.069 444.187 392.199 353.547 339.332 330.809 258.493 299.955 256.741 254.397 247.773 243.485 232.137 214.898 210.519 202.801 192.09 191.331 186.266 167.322 157.252
threshold=9.552500000000002 11.202291666666669 7.0225000000000009 14.067500000000001 8.8543750000000028 177.34750000000003 8.3075000000000028 5.8125000000000009 13.092708333333336 183.14250000000001 5.5000000000000009 16.990000000000006 2.1976869727015331 -0.70710678118654757 11.116666666666669 2.5504493061572746 13.860208333333334 187.25500000000002 2.4226584092740482 50.00833333333334 5.5000000000000009 141.48722222222224 133.63250000000002 8.4148958333333361 4.9125000000000005 176.14250000000001 149.74083333333337 0.25881904510252057 2.3762270952136801 4.4428538710830647 9.0512500000000031 7.7375000000000016 11.968125000000002 173.96250000000003 -0.70710678118654735 173.74750000000003 167.16750000000002
decision_type=2 2 2 2 2 2 2 2 2 2 2 2 2 2 2 2 2 2 2 2 2 2 2 2 2 2 2 2 2 2 2 2 2 2 2 2 2
left_child=2 4 7 5 19 10 17 24 13 14 -3 35 22 -5 21 -15 26 31 -11 25 -14 -6 -8 -24 -1 -2 -12 -9 -23 -7 -29 -4 -28 -17 -18 -10 -34
right_child=1 3 6 8 9 29 12 27 11 18 16 -13 20 15 -16 33 34 -19 -20 -21 -22 28 23 -25 -26 -27 32 30 -30 -31 -32 -33 36 -35 -36 -37 -38
leaf_value=-0.063471269849866618 -0.0034116549621447181 0.0065067792232056526 -0.025117700771225542 0.035380341067647383 -0.012362870346116751 0.079326745421928455 -0.025176200402047183 -0.023159279673144722 0.075246221458634563 0.028520400317098085 0.050860081262672427 0.12709712196622094 -0.0052212523125845008 0.054959460071111493 0.030525799250674272 0.06801243534700184 0.072403655080255924 -0.0024917304527940711 0.050061646846598952 -0.0084888234512740818 0.013930962260940708 0.010949910091847113 -0.0098566759847514424 0.001052986152099443 -0.051102549651863019 0.011422202948895597 0.018935087881708838 -0.042018220726802238 0.025690804495390185 0.053854715947005312 -0.030258351835905705 -0.016514935702248112 0.029881146128945744 0.095025208494118274 0.047416336831319725 0.1020966530973004 0.046727670716097743
leaf_weight=598 409 216 1355 97 125 243 180 284 144 828 177 196 342 168 466 89 113 347 264 534 603 1481 1758 899 1237 819 234 1230 304 121 515 1245 406 248 199 98 196
leaf_count=598 409 216 1355 97 125 243 180 284 144 828 177 196 342 168 466 89 113 347 264 534 603 1481 1758 899 1237 819 234 1230 304 121 515 1245 406 248 199 98 196
internal_value=3.35885e-06 0.0299601 -0.0231156 0.0570127 0.014724 0.0418217 -0.01037 -0.0453084 0.0848143 0.0212163 0.0349332 0.104621 -0.0037827 0.0703495 0.0154548 0.0770363 0.0395642 -0.0188223 0.033743 0.00194408 0.00700031 0.0117728 -0.00737494 -0.00616573 -0.055145 0.00648204 0.0343177 -0.0364041 0.0134651 0.070921 -0.0385545 -0.0210012 0.0307949 0.0879715 0.0565393 0.0862551 0.0353907
internal_weight=18768 8175 10593 2945 5230 1905 6729 3864 1040 3468 1541 438 3782 602 2376 505 1325 2947 1092 1762 945 1910 2837 2657 1835 1228 1013 2029 1785 364 1745 2600 836 337 312 242 602
internal_count=18768 8175 10593 2945 5230 1905 6729 3864 1040 3468 1541 438 3782 602 2376 505 1325 2947 1092 1762 945 1910 2837 2657 1835 1228 1013 2029 1785 364 1745 2600 836 337 312 242 602
is_linear=0
shrinkage=0.0153641


Tree=11
num_leaves=38
num_cat=0
split_feature=29 35 29 29 32 32 39 29 31 29 33 8 31 39 31 32 32 41 41 31 9 9 31 33 31 9 35 29 8 9 8 51 51 9 33 31 31
split_gain=53388.5 13839.5 12306.1 5104.08 2199.84 1803.76 1565.05 1538.74 1472.29 1387.17 758.649 742.462 718.623 703.981 483.163 471.764 449.337 444.493 416.422 376.024 319.371 335.585 316.949 311.019 292.393 250.07 249.772 248.927 248.504 236.054 225.402 222.824 219.793 209.395 207.601 206.268 198.782
threshold=9.552500000000002 11.202291666666669 7.0225000000000009 14.067500000000001 2.3721637394021302 3.1745458954259882 177.34750000000003 8.3075000000000028 10.258750000000003 5.8125000000000009 13.444166666666668 -0.78656609248549292 10.550416666666669 141.28250000000003 14.492083333333335 2.9437668570620938 1.749702117271273 33.720629576406665 32.71652820058722 9.4720833333333356 -0.5 0.78656609248549303 11.553333333333336 8.3081250000000022 8.4187500000000028 -0.5 8.9804166666666685 4.9125000000000005 -0.78656609248549292 0.25881904510252057 -0.70710678118654735 37.670208333333335 36.913541666666674 0.78656609248549303 7.9241666666666672 8.6820833333333365 12.225000000000003
decision_type=2 2 2 2 2 2 2 2 2 2 2 2 2 2 2 2 2 2 2 2 2 2 2 2 2 2 2 2 2 2 2 2 2 2 2 2 2
left_child=2 4 9 6 8 10 13 17 16 27 -5 -7 18 -3 20 34 23 19 24 -4 36 -22 28 -2 -9 32 -18 -1 -10 -11 -16 -20 -13 -14 -6 -31 -15
right_child=1 3 7 5 15 11 -8 12 22 29 -12 25 33 14 30 -17 26 -19 31 -21 21 -23 -24 -25 -26 -27 -28 -29 -30 35 -32 -33 -34 -35 -36 -37 -38
leaf_value=-0.062496679461029062 -0.0099210261488328517 0.012145429289233288 -0.023259724217926766 0.053200853568030823 0.020464400429633101 0.14263668590926967 0.069833419227399482 -0.017051212440271149 0.026118593748795101 -0.022803907980148991 0.089437888590885528 0.089037337612701981 0.017149367789629059 0.012789302240805463 0.085393098372751539 0.06001422456460654 0.0068493496926561991 0.0065232704885541531 0.01965882438570471 -0.010319476862781566 0.052273842864847458 0.017368872781164536 0.031057454099321504 0.0034004795787180822 -0.0058475372267967583 0.10417546458498918 0.025920898767369176 -0.050317630953521215 0.011765185110131278 -0.040257140911176 0.049409559837723806 -0.0035818123070728959 0.037094293601507324 -0.00014630530794890366 0.039260101173782994 -0.025712021865521666 0.032463895640712143
leaf_weight=598 587 276 2076 387 233 107 364 769 445 284 213 67 423 187 48 184 448 158 193 713 283 85 539 1399 1930 238 254 1237 793 1469 314 196 28 271 348 276 348
leaf_count=598 587 276 2076 387 233 107 364 769 445 284 213 67 423 187 48 184 448 158 193 713 283 85 539 1399 1930 238 254 1237 793 1469 314 196 28 271 348 276 348
internal_value=3.54819e-06 0.0295006 -0.0227606 0.0561385 0.0144979 0.0835141 0.0411804 -0.0102108 0.0103716 -0.0446126 0.066111 0.107172 -0.00372461 0.0343975 0.0392476 0.0385655 0.00319731 -0.0185332 -0.00689961 -0.0199534 0.0332097 0.0442365 0.021221 -0.000538019 -0.00904155 0.0956349 0.0137597 -0.0542981 0.0169306 -0.0358451 0.054261 0.00795635 0.0739259 0.010399 0.0317398 -0.0379624 0.0256002
internal_weight=18768 8175 10593 2945 5230 1040 1905 6729 4465 3864 600 440 3782 1541 1265 765 2688 2947 3088 2789 903 368 1777 1986 2699 333 702 1835 1238 2029 362 389 95 694 581 1745 535
internal_count=18768 8175 10593 2945 5230 1040 1905 6729 4465 3864 600 440 3782 1541 1265 765 2688 2947 3088 2789 903 368 1777 1986 2699 333 702 1835 1238 2029 362 389 95 694 581 1745 535
is_linear=0
shrinkage=0.0153641


Tree=12
num_leaves=38
num_cat=0
split_feature=29 36 29 29 31 29 29 39 9 31 39 0 31 29 31 39 39 31 31 9 31 39 52 31 34 29 31 29 31 9 52 37 66 44 31 0 31
split_gain=51762.2 12931.2 11931.1 4834.59 1846.36 1491.83 1344.89 1245.16 1128.23 1147.03 912.224 708.953 696.723 498.214 465.588 422.791 419.045 346.655 342.66 319.281 312.607 296.643 293.454 287.724 286.847 269.759 245.783 241.351 231.366 228.849 223.597 222.919 217.596 215.868 212.412 207.152 199.968
threshold=9.552500000000002 2.6054706755069774 7.0225000000000009 14.067500000000001 10.581250000000002 8.3075000000000028 5.8125000000000009 176.35500000000005 -0.70710678118654757 12.757083333333336 185.82500000000002 5.5000000000000009 10.550416666666669 16.990000000000006 14.338750000000001 187.25500000000002 183.85250000000002 9.4720833333333356 12.083750000000002 -0.3794095225512602 8.6012500000000021 190.75750000000002 13.452349632803676 8.4187500000000028 3.2932421021767713 10.832500000000001 15.752916666666668 4.9125000000000005 11.277500000000002 0.25881904510252057 12.933448677066371 155.22750000000002 13.250000000000002 160.15552083333336 11.833750000000002 20.500000000000004 8.6820833333333365
decision_type=2 2 2 2 2 2 2 2 2 2 2 2 2 2 2 2 2 2 2 2 2 2 2 2 2 2 2 2 2 2 2 2 2 2 2 2 2
left_child=2 4 6 7 10 15 27 11 26 24 25 -3 21 -11 19 17 18 -4 -6 34 30 23 -9 -7 28 -2 -5 -1 -10 -8 -12 -14 -18 -23 -13 -21 -31
right_child=1 3 5 8 16 12 29 22 9 13 20 14 31 -15 -16 -17 32 -19 -20 35 -22 33 -24 -25 -26 -27 -28 -29 -30 36 -32 -33 -34 -35 -36 -37 -38
leaf_value=-0.061537046001317035 -0.0002946446501615845 0.0061589804185410262 -0.023693300020251058 0.029721967405542754 0.019192700519955044 -0.016791074533179969 -0.02245398917380903 0.073654541771491708 0.038709500154072832 0.089564478121622645 0.017439221520482204 0.0061993485459521415 -0.00035023136269953816 0.12202317672248382 0.052083874399385527 -0.0023162416244753813 0.028223575815962649 -0.010882169869928538 0.036090548158484143 0.050621501372621801 0.028085852500058506 0.021443736211566342 0.04594914954372805 -0.0055193438711020502 0.085286491853421492 0.010240275238751016 0.073469881095324902 -0.049544769856495356 0.071642072958776282 -0.039638776046853286 -0.0044418455856991747 0.017395503233904624 0.05140549838816303 -0.0027972349901304355 0.029622854006884306 0.023680818034316698 -0.025317493564615687
leaf_weight=598 1529 189 1926 99 977 732 284 272 87 222 479 129 280 240 385 347 163 674 400 234 582 136 139 1982 171 918 44 1237 125 1469 143 414 237 238 315 96 276
leaf_count=598 1529 189 1926 99 977 732 284 272 87 222 479 129 280 240 385 347 163 674 400 234 582 136 139 1982 171 918 44 1237 125 1469 143 414 237 238 315 96 276
internal_value=3.74269e-06 0.029048 -0.022411 0.0562088 0.0152997 -0.0100539 -0.0439275 0.0409188 0.0834057 0.0901658 0.00904666 0.0337645 -0.00366737 0.106508 0.0382629 -0.0182485 0.0281427 -0.0203742 0.0241095 0.0313671 0.0199932 -0.00679362 0.0643331 -0.0085613 0.0703711 0.00365848 0.0433337 -0.0534642 0.0582159 -0.0352946 0.012409 0.0102393 0.0419928 0.00602976 0.022828 0.0428186 -0.0373793
internal_weight=18768 8175 10593 2747 5428 6729 3864 1759 988 845 3651 1348 3782 462 1159 2947 1777 2600 1377 774 1204 3088 411 2714 383 2447 143 1835 212 2029 622 694 400 374 444 330 1745
internal_count=18768 8175 10593 2747 5428 6729 3864 1759 988 845 3651 1348 3782 462 1159 2947 1777 2600 1377 774 1204 3088 411 2714 383 2447 143 1835 212 2029 622 694 400 374 444 330 1745
is_linear=0
shrinkage=0.0153641


Tree=13
num_leaves=38
num_cat=0
split_feature=29 35 29 29 35 29 29 37 29 37 31 0 31 49 31 35 52 41 41 41 52 31 29 0 61 31 31 7 31 37 51 52 31 49 0 2 8
split_gain=50185.4 13047.3 11568.7 4798.6 1699.46 1446.66 1311.53 1211.58 1017.65 780.534 675.49 633.805 605.261 572.768 510.282 473.357 432.633 403.09 395.82 381.252 361.044 335.168 295.419 288.148 272.486 271.525 247.757 238.923 226.313 216.128 206.698 190.876 188.19 182.26 175.795 160.385 142.659
threshold=9.552500000000002 11.202291666666669 7.1075000000000008 14.067500000000001 8.8543750000000028 5.9575000000000005 8.3075000000000028 169.21750000000003 16.695000000000004 176.94500000000002 10.550416666666669 5.5000000000000009 13.107083333333335 50.222500000000004 11.553333333333336 10.318854166666668 12.412018061944471 33.720629576406665 33.720629576406665 33.720629576406665 11.243673695088235 8.920416666666668 5.0675000000000017 5.5000000000000009 3.7692369590036261 8.4187500000000028 11.677500000000002 1.0000000180025095e-35 15.109583333333335 155.22750000000002 37.670208333333335 13.903184681023371 8.8812500000000014 43.41125000000001 8.5000000000000018 4.5000000000000009 -0.9159756150367534
decision_type=2 2 2 2 2 2 2 2 2 2 2 2 2 2 2 2 2 2 2 2 2 2 2 2 2 2 2 2 2 2 2 2 2 2 2 2 2
left_child=2 4 5 7 19 22 17 11 16 14 18 -3 34 28 23 33 26 21 25 -2 -14 -4 -1 -6 -13 -8 -5 -23 -9 -12 -20 -17 -7 -11 -10 -21 -25
right_child=1 3 6 8 9 32 10 13 12 15 29 24 20 -15 -16 31 -18 -19 30 35 -22 27 -24 36 -26 -27 -28 -29 -30 -31 -32 -33 -34 -35 -36 -37 -38
leaf_value=-0.059302086049700949 -0.0035772203242102557 0.0062816198288162053 -0.023651334513408132 0.058701004098110951 -0.021257411150151864 -0.035013602626766303 -0.016297325096484488 0.059694245855310572 0.089416668975579677 0.031157113456865539 -0.00034485725916549056 0.042866275359524475 0.12122538061911034 0.03653454924949244 0.029432421532303226 0.052214668074606702 0.042551169204163894 0.0064865398478828823 0.020159350211934442 0.0082364779479587244 0.069968845760361845 -0.017862286769948027 -0.047138195687571979 0.019035811024820611 0.026564679464042812 -0.0055965906160054708 0.082733012342557047 -0.0031013746367220909 0.085073275744083743 0.017128468587115902 -0.0032048402016161418 0.020654689131838991 -0.021101065491132189 0.019403188071584539 0.057908768433962823 0.030790853217881414 0.0081021756727454146
leaf_weight=750 1133 210 1509 158 68 1688 786 355 107 532 280 552 224 240 383 232 128 156 179 543 40 721 1315 385 436 1945 309 404 112 414 178 57 268 759 74 86 1052
leaf_count=750 1133 210 1509 158 68 1688 786 355 107 532 280 552 224 240 383 232 128 156 179 543 40 721 1315 385 436 1945 309 404 112 414 178 57 268 759 74 86 1052
internal_value=3.90997e-06 0.0286024 -0.0220668 0.0544668 0.0140355 -0.0425925 -0.00950671 0.0399631 0.0810105 0.0202777 -0.00361101 0.0305341 0.0986348 0.0559168 0.0136055 0.0282456 0.0677776 -0.0174972 -0.00668925 0.00174777 0.113565 -0.0189183 -0.0515657 0.00957172 0.0356848 -0.00867808 0.0746538 -0.0125642 0.0658418 0.0100822 0.00851843 0.0460236 -0.0331116 0.0242541 0.0766756 0.0113361 0.0110356
internal_weight=18768 8175 10593 2945 5230 4021 6572 1905 1040 3468 3782 1198 445 707 1888 1580 595 2790 3088 1762 264 2634 2065 1505 988 2731 467 1125 467 694 357 289 1956 1291 181 629 1437
internal_count=18768 8175 10593 2945 5230 4021 6572 1905 1040 3468 3782 1198 445 707 1888 1580 595 2790 3088 1762 264 2634 2065 1505 988 2731 467 1125 467 694 357 289 1956 1291 181 629 1437
is_linear=0
shrinkage=0.0153641


Tree=14
num_leaves=38
num_cat=0
split_feature=30 35 30 29 30 29 39 29 29 29 35 35 52 35 39 29 30 39 9 39 39 29 39 35 35 30 52 41 52 30 35 35 48 26 52 35 39
split_gain=52837.8 12746.8 9722.41 4467.79 2017.86 1440.11 1311.57 1305.89 955.531 667.417 521.855 451.384 420.736 381.294 376.078 340.46 311.349 303.142 290.004 286.533 276.101 254.857 254.394 284.38 237.727 221.826 194.308 159.68 157.536 150.732 143.645 141.273 117.571 116.831 104.556 103.498 96.4485
threshold=9.4425000000000008 11.202291666666669 7.1275000000000004 14.067500000000001 10.875781250000001 6.2275000000000009 177.34750000000003 8.5125000000000011 16.695000000000004 10.762500000000001 9.860729166666669 12.821354166666667 12.412018061944471 8.5687500000000014 176.14250000000001 5.2425000000000006 7.9775000000000009 173.96250000000003 -0.5 142.09750000000003 179.06250000000003 10.972500000000002 142.09750000000003 8.8543750000000028 10.716041666666669 11.817500000000001 14.051776909675723 22.686893881022936 5.2858618181588986 8.427500000000002 8.2553125000000023 10.658229166666668 35.337500000000013 19.537812500000005 12.412018061944471 12.0271875 173.48750000000004
decision_type=2 2 2 2 2 2 2 2 2 2 2 2 2 2 2 2 2 2 2 2 2 2 2 2 2 2 2 2 2 2 2 2 2 2 2 2 2
left_child=2 4 5 6 22 15 9 16 12 19 20 -10 17 29 -12 -1 -4 -5 -13 -3 -6 32 -2 27 -7 -11 -8 -24 -23 -9 -22 -16 -15 -21 -33 -19 -20
right_child=1 3 7 8 10 24 26 13 11 25 14 18 -14 21 31 -17 -18 35 36 33 30 28 23 -25 -26 -27 -28 -29 -30 -31 -32 34 -34 -35 -36 -37 -38
leaf_value=-0.057532943060340548 -0.015180398167192974 0.00329700757910613 -0.023826119114977212 0.060962836158245243 0.0096099143292401271 -0.033657732813827494 0.072253768602490831 -0.015636200068027219 0.076315210677125475 0.033073391777022475 0.023774977330869706 0.071182131953084246 0.042249786028112662 -0.0077977541541004248 0.036988586933164772 -0.04537176133652919 -0.013932124709960489 0.070656838273864431 0.1007999420830408 0.045495869611332458 0.01266184081715524 0.039052392332375889 -0.001211914720095607 0.012293179755823232 -0.016536276189454011 0.047817544644142652 0.04487725087550104 0.0088371235422815969 0.0092298597709696215 -0.0061614847709606808 0.026799910140400899 0.062575757918593419 0.0024880925268113124 0.022877669542967841 0.035941551326161891 0.093550708111861974 0.12329831831123446
leaf_weight=892 121 174 1463 222 480 1485 285 582 161 449 500 43 127 434 374 1430 1547 76 83 69 217 53 915 1491 221 532 81 630 195 1244 794 113 662 253 53 160 157
leaf_count=892 121 174 1463 222 480 1485 285 582 161 449 500 43 127 434 374 1430 1547 76 83 69 217 53 915 1491 221 532 81 630 195 1244 794 113 662 253 53 160 157
internal_value=4.08149e-06 0.0281552 -0.0236024 0.0545384 0.014831 -0.0421741 0.0402062 -0.011496 0.0801853 0.0337391 0.0250505 0.0972312 0.067196 -0.00461305 0.0334063 -0.0500517 -0.0187433 0.0740747 0.109018 0.0191933 0.0192155 0.00159777 0.00663607 0.00750727 -0.0314437 0.0410838 0.0662451 0.00288684 0.0156507 -0.00918385 0.0237709 0.0423024 -0.00158616 0.0277699 0.0541684 0.0862971 0.11568
internal_weight=18768 8560 10208 2872 5688 4028 1843 6180 1029 1477 2531 444 585 3170 1040 2322 3010 458 283 496 1491 1344 3157 3036 1706 981 366 1545 248 1826 1011 540 1096 322 166 236 240
internal_count=18768 8560 10208 2872 5688 4028 1843 6180 1029 1477 2531 444 585 3170 1040 2322 3010 458 283 496 1491 1344 3157 3036 1706 981 366 1545 248 1826 1011 540 1096 322 166 236 240
is_linear=0
shrinkage=0.0153641


Tree=15
num_leaves=38
num_cat=0
split_feature=28 28 28 30 32 28 30 28 33 36 33 52 28 28 28 32 30 30 33 0 32 32 22 28 30 51 28 34 33 32 33 32 33 30 33 32 30
split_gain=52580.4 13007.8 12216.7 2624.33 2161.04 1815.57 1801.49 971.514 787.406 724.973 561.849 456.233 344.368 344.187 297.121 296.687 291.4 276.603 230.46 216.523 197.176 195.922 189.649 177.751 157.969 144.719 136.91 134.349 125.377 119.675 111.013 128.035 109.721 109.341 98.9314 98.4022 93.5605
threshold=9.9425000000000008 7.4225000000000003 13.867500000000001 11.267500000000002 2.6175183057560156 6.1675000000000013 8.802500000000002 17.822500000000002 12.485416666666667 2.6054706755069774 11.151875000000002 12.348628243253417 5.2425000000000006 9.1318750000000026 8.4025000000000016 2.5917717553623132 10.027500000000002 13.777500000000002 12.91229166666667 4.5000000000000009 2.4170645038947085 1.5216589083242853 19.34416666666667 15.735000000000001 6.9075000000000015 39.240833333333342 11.937500000000002 2.2267053926832951 13.749166666666669 1.4838245907419576 11.755833333333337 1.3140370177684391 8.5979166666666682 10.812500000000002 9.4322916666666679 2.2221342915002205 7.8175000000000017
decision_type=2 2 2 2 2 2 2 2 2 2 2 2 2 2 2 2 2 2 2 2 2 2 2 2 2 2 2 2 2 2 2 2 2 2 2 2 2
left_child=1 5 3 10 8 12 14 11 29 15 16 23 -1 27 36 30 35 22 -9 -12 33 -10 -11 -6 -7 -13 -21 -8 -19 -4 31 34 -33 -15 -5 -2 -3
right_child=2 6 4 9 7 24 13 18 21 17 19 25 -14 20 -16 -17 -18 28 -20 26 -22 -23 -24 -25 -26 -27 -28 -29 -30 -31 -32 32 -34 -35 -36 -37 -38
leaf_value=-0.056777609097545617 0.0023651806144340077 -0.022448732926055065 0.0242281566107302 0.00220088580790769 0.077359292476133323 -0.034328925270913434 -0.0064328130865115539 0.096736732985267554 0.055106805474546522 0.060175213851754006 0.0022266032735886029 0.060617627177820266 -0.044674205776000966 0.0021078102850857114 -0.0097955550528386007 0.04375990398270533 0.014879301945771037 0.054239890563529049 0.13121408861261785 0.022602466643113325 0.024158597462927697 0.079404037312955769 0.037175293669370377 0.097583716688922725 -0.026205342578295602 0.016967219817553135 0.036571017430330977 0.0033237617229894844 0.081071425734189212 0.043334911236454665 0.036177318716354247 0.020334808350742174 0.033500182099073406 0.011996361543920702 0.02097480768302868 0.016510620086629041 -0.015572750291042244
leaf_weight=908 946 931 123 80 233 1096 1389 79 136 103 90 87 1466 1400 1492 263 1315 171 135 479 122 201 504 205 1187 23 256 438 57 217 208 247 388 325 388 132 948
leaf_count=908 946 931 123 80 233 1096 1389 79 136 103 90 87 1466 1400 1492 263 1315 171 135 479 122 201 504 205 1187 23 256 438 57 217 208 247 388 325 388 132 948
internal_value=4.29966e-06 -0.0199788 0.0330977 0.0228787 0.0730421 -0.0399014 -0.00680796 0.0908004 0.0530166 0.035005 0.0137979 0.079846 -0.0493114 0.000634241 -0.0149183 0.0288533 0.0100258 0.0465839 0.11867 0.0247302 0.00531078 0.069668 0.0411115 0.0868975 -0.03011 0.051576 0.0274833 -0.00409359 0.0610651 0.0364558 0.0258516 0.0238932 0.0283936 0.003973 0.0177698 0.00410223 -0.0189833
internal_weight=18768 11702 7066 5627 1439 4657 7045 762 677 2409 3218 548 2374 3674 3371 1574 2393 835 214 825 1847 337 607 438 2283 110 735 1827 228 340 1311 1103 635 1725 468 1078 1879
internal_count=18768 11702 7066 5627 1439 4657 7045 762 677 2409 3218 548 2374 3674 3371 1574 2393 835 214 825 1847 337 607 438 2283 110 735 1827 228 340 1311 1103 635 1725 468 1078 1879
is_linear=0
shrinkage=0.0153641


Tree=16
num_leaves=38
num_cat=0
split_feature=28 28 28 28 28 28 28 33 33 33 35 28 34 52 49 37 34 51 28 37 33 49 61 41 34 33 37 28 33 41 37 37 14 33 9 33 10
split_gain=50979 12611.3 11845.2 2116.94 1760.23 1535.51 1528.74 675.739 618.126 597.074 468.221 333.877 306.304 293.689 285.059 271.433 265.259 251.502 211.749 206.151 252.715 204.685 204.283 170.02 168.399 165.735 147.304 145.46 143.784 136.135 135.592 128.027 121.436 119.667 119.017 114.394 113.617
threshold=9.9425000000000008 7.4225000000000003 13.867500000000001 11.727500000000001 6.1675000000000013 17.502500000000005 8.7225000000000019 13.003125000000001 10.867500000000001 11.072708333333335 9.5033333333333356 5.2425000000000006 2.6318425058262922 13.3898021622537 42.579583333333339 177.92750000000004 2.2798209824551745 37.003750000000004 8.1275000000000031 141.48722222222224 13.860208333333334 41.445416666666674 5.1951886787457067 22.686893881022936 2.3359917111281212 13.444166666666668 130.83500000000001 6.8625000000000016 9.9406250000000025 27.403474877549737 168.41250000000002 164.33250000000004 1.0000000180025095e-35 12.017708333333335 -0.12940952255126037 12.849583333333337 -0.8783796973249266
decision_type=2 2 2 2 2 2 2 2 2 2 2 2 2 2 2 2 2 2 2 2 2 2 2 2 2 2 2 2 2 2 2 2 2 2 2 2 2
left_child=1 4 3 10 11 9 18 12 14 21 22 -1 -7 15 24 35 28 -10 -3 -12 29 -4 23 -2 -5 31 -18 -6 -8 33 -27 -19 -16 -21 -32 -11 -28
right_child=2 6 5 8 27 7 16 -9 17 13 19 -13 -14 -15 32 -17 26 25 -20 20 -22 -23 -24 -25 -26 30 36 -29 -30 -31 34 -33 -34 -35 -36 -37 -38
leaf_value=-0.055905616914113734 0.007029032101555456 -0.017922748491459473 0.052142978224699717 0.028736106022967438 -0.033395956373415026 0.047461036322433182 -0.0039662555490547402 0.1185542406938203 0.059363155345743046 0.053444853419831712 0.0070195303382616994 -0.043987994003952681 0.091797052725257178 0.042764877145267541 0.013869747118144083 0.084224931084570673 -0.00237763984292559 0.025121711744072628 -0.010272906962987282 0.017295441517614609 0.049416002199264564 0.023556039251168146 -0.0018333229772978749 0.017651869457186567 0.049614426043288314 0.044068032394855738 0.023000313952737599 -0.025599640128397019 0.0042214532010681144 0.032091875987718808 0.049085314608312107 0.040666244038263105 0.035814736279417378 0.02810378656609111 0.093886328942847749 0.070630414641413883 0.0078578120680161002
leaf_weight=908 719 1697 186 309 1184 59 2128 198 200 148 227 1466 104 89 367 291 237 195 1724 1160 79 88 291 705 131 206 160 1099 664 239 31 362 71 307 28 276 435
leaf_count=908 719 1697 186 309 1184 59 2128 198 200 148 227 1466 104 89 367 291 237 195 1724 1160 79 88 291 705 131 206 160 1099 664 239 31 362 71 307 28 276 435
internal_value=4.52647e-06 -0.019672 0.0325901 0.0225276 -0.0392885 0.0719225 -0.00670337 0.0993848 0.0357257 0.0626958 0.0157965 -0.048554 0.0758891 0.0693841 0.0262514 0.0726744 0.000250499 0.043853 -0.0140691 0.0208244 0.0225782 0.0430048 0.00989482 0.0122914 0.0349877 0.0400548 0.00786313 -0.0296476 -0.00201873 0.0213252 0.050105 0.035244 0.0174536 0.0195637 0.0707877 0.0646822 0.0119412
internal_weight=18768 11702 7066 5627 4657 1439 7045 361 1900 1078 3727 2374 163 804 878 715 3624 1022 3421 2012 1785 274 1715 1424 440 822 832 2283 2792 1706 265 557 438 1467 59 424 595
internal_count=18768 11702 7066 5627 4657 1439 7045 361 1900 1078 3727 2374 163 804 878 715 3624 1022 3421 2012 1785 274 1715 1424 440 822 832 2283 2792 1706 265 557 438 1467 59 424 595
is_linear=0
shrinkage=0.0153641


Tree=17
num_leaves=38
num_cat=0
split_feature=29 36 29 29 32 31 32 29 39 29 33 31 8 0 32 33 31 33 32 39 31 33 8 52 37 52 51 33 51 29 31 33 33 32 32 8 32
split_gain=44463.6 11186.3 10243.5 4158.34 1711.41 1571.6 1463.57 1403.48 1107.44 1030.07 689.581 685.095 663.901 609.548 457.024 432.277 429.275 428.555 400.024 325.687 316.101 302.652 291.152 261.378 260.878 260.86 244.033 239.279 224.435 210.681 204.079 179.07 178.206 176.763 176.127 174.589 161.178
threshold=9.552500000000002 2.6054706755069774 6.9375000000000009 14.067500000000001 2.3721637394021302 10.282460937500002 3.1745458954259882 7.9975000000000014 176.35500000000005 5.8125000000000009 13.190625000000002 10.492916666666668 -0.78656609248549292 5.5000000000000009 2.1357435278290917 13.860208333333334 12.083750000000002 8.8722916666666691 1.7643010872583462 187.71250000000003 8.6820833333333365 8.3081250000000022 -0.78656609248549292 12.219280157397561 155.22750000000002 13.452349632803676 37.932500000000012 8.0156250000000018 38.289375000000007 4.9125000000000005 9.7737500000000015 11.968125000000002 10.509791666666668 1.4838245907419576 1.1332030497415915 -0.78656609248549292 1.686179729235459
decision_type=2 2 2 2 2 2 2 2 2 2 2 2 2 2 2 2 2 2 2 2 2 2 2 2 2 2 2 2 2 2 2 2 2 2 2 2 2
left_child=2 4 9 8 5 18 10 19 13 29 36 14 -8 -3 20 26 22 -6 21 30 34 -2 -7 -14 -13 32 -15 -20 -16 -1 -4 -28 -10 -12 -9 -35 -5
right_child=1 3 7 6 17 16 12 11 25 -11 33 24 23 15 28 -17 -18 -19 27 -21 -22 -23 -24 -25 -26 -27 31 -29 -30 -31 -32 -33 -34 35 -36 -37 -38
leaf_value=-0.057087588611029805 -0.0095483815348565444 0.0056614332745094928 -0.023493673524170113 0.023776202597287365 0.027142913958482666 0.026471011345189387 0.13010398735848919 -0.017660638366104667 0.043678220413037414 -0.033328332145242251 0.054980260074535832 -0.0021264689143070973 0.093854876122277595 0.048401862895660799 0.019599744758912879 0.051249042594020758 0.034370551223489365 0.051687367438706368 0.0062075164311842217 -0.0027499122625239711 -0.0051433239405009904 0.0035102281844194296 0.012380790448682196 0.06002467215627643 0.015155378381804283 0.04275707048664551 0.01532799080047682 0.024791075351123671 -0.0071904246311237426 -0.045884749894478882 -0.010165599955628704 0.031636435541111792 0.075176324422416868 0.097619209890708977 -0.0053794172192813917 0.066321587877986934 0.050520722307019719
leaf_weight=598 593 189 1746 72 469 530 114 1103 55 1872 59 360 266 140 205 302 448 263 438 247 1938 1425 1001 71 482 139 240 261 115 1237 322 477 217 120 368 71 215
leaf_count=598 593 189 1746 72 469 530 114 1103 55 1872 59 360 266 140 205 302 448 263 438 247 1938 1425 1001 71 482 139 240 261 115 1237 322 477 217 120 368 71 215
internal_value=4.75881e-06 0.0269236 -0.0207697 0.0521856 0.0141364 0.0107286 0.0774088 -0.0096834 0.0380051 -0.0413603 0.0601952 -0.00474644 0.0978405 0.0312585 -0.00757281 0.0354296 0.0211418 0.0359826 0.00314211 -0.0194292 -0.00922087 -0.000328122 0.0172636 0.0867992 0.00776869 0.0600861 0.0298357 0.0131557 0.0099747 -0.0495461 -0.0214206 0.026188 0.0688735 0.0788698 -0.0145903 0.0861318 0.0438496
internal_weight=18768 8175 10593 2747 5428 4696 988 6886 1759 3707 537 4571 451 1348 3729 1159 1979 732 2717 2315 3409 2018 1531 337 842 411 857 699 320 1835 2068 717 272 250 1471 191 287
internal_count=18768 8175 10593 2747 5428 4696 988 6886 1759 3707 537 4571 451 1348 3729 1159 1979 732 2717 2315 3409 2018 1531 337 842 411 857 699 320 1835 2068 717 272 250 1471 191 287
is_linear=0
shrinkage=0.0153641


Tree=18
num_leaves=38
num_cat=0
split_feature=29 36 29 29 32 31 32 29 29 39 8 0 0 31 34 31 31 32 31 31 32 40 32 0 52 52 8 29 52 31 31 39 31 0 8 8 50
split_gain=43109.3 10846.2 9931.49 4032.01 1659.29 1525.48 1418.98 1243.05 1126.93 1073.79 643.772 590.983 564.25 515.444 421.339 415.419 394.106 359.253 364.403 347.202 294.445 292.123 278.655 260.754 253.365 252.92 252.91 237.852 218.975 195.314 184.771 183.514 180.271 179.778 177.478 167.477 159.706
threshold=9.552500000000002 2.6054706755069774 7.1075000000000008 14.067500000000001 2.3721637394021302 10.521250000000002 3.1745458954259882 5.9075000000000015 8.5425000000000022 176.35500000000005 -0.78656609248549292 5.5000000000000009 17.500000000000004 10.748750000000003 2.0303919049057115 14.784583333333334 10.307083333333335 1.6573685171518189 9.5504166666666688 12.083750000000002 1.4838245907419576 164.23000000000002 2.1357435278290917 5.5000000000000009 12.219280157397561 13.452349632803676 -0.78656609248549292 5.0675000000000017 13.3898021622537 8.6820833333333365 11.833750000000002 140.28750000000005 8.8812500000000014 16.500000000000004 -0.78656609248549292 -0.70710678118654735 14.710943257232403
decision_type=2 2 2 2 2 2 2 2 2 2 2 2 2 2 2 2 2 2 2 2 2 2 2 2 2 2 2 2 2 2 2 2 2 2 2 2 2
left_child=2 4 7 9 5 17 12 27 14 11 -8 -3 -5 22 31 21 36 18 -2 26 -14 -13 29 -16 -12 -11 -7 -1 -19 -10 -23 -4 -9 -20 -32 -17 -6
right_child=1 3 8 6 16 19 10 32 13 25 24 15 20 -15 23 35 -18 28 33 -21 -22 30 -24 -25 -26 -27 -28 -29 -30 -31 34 -33 -34 -35 -36 -37 -38
leaf_value=-0.054972509352199994 -0.0054159002376904623 0.0055746157330170245 -0.024687118628622915 0.043740611579028844 0.036254951166671906 0.027854035084595021 0.12811134928473675 -0.032789027570696981 -0.012260078722107631 0.067817693417893676 0.092414826332830893 0.046714419882429553 0.038642073150844676 0.011987938836789317 -0.014384626188302538 0.083124257550140884 0.054146261279774184 0.017591548656386971 0.00068060770464245328 0.033842901464591714 0.082677939636671832 0.011637891352249291 0.010901618725121588 0.0020684701503774616 0.059107097974020195 0.042101842326887469 0.013134444698629857 -0.04393266091091079 -0.00029928905393642586 -0.0030284369241013681 0.0475886950245216 -0.015445233268345456 -0.019217189244793875 0.013208796003929211 0.024830295863774381 0.046225913933811841 0.019372861857223655
leaf_weight=750 1111 189 694 274 293 414 114 1763 864 272 266 181 44 516 434 33 195 592 527 448 219 186 240 477 71 139 827 1240 222 1447 103 1900 268 555 385 271 244
leaf_count=750 1111 189 694 274 293 414 114 1763 864 272 266 181 44 516 434 33 195 592 527 448 219 186 240 477 71 139 827 1240 222 1447 103 1900 268 555 385 271 244
internal_value=4.9491e-06 0.0265107 -0.0204507 0.0513856 0.0139194 0.0105639 0.0762227 -0.0394686 -0.00881326 0.0374222 0.0963407 0.0307788 0.0592733 -0.00201148 -0.0147642 0.0348859 0.0354303 0.00400003 0.000763918 0.0222465 0.0753737 0.0293776 -0.00484449 -0.00577234 0.0854681 0.0591651 0.0180516 -0.0481026 0.0127142 -0.0064812 0.0246993 -0.0179209 -0.0310019 0.00710908 0.0296654 0.050325 0.0286023
internal_weight=18768 8175 10593 2747 5428 4696 988 4021 6572 1759 451 1348 537 3067 3505 1159 732 3007 2193 1689 263 855 2551 911 337 411 1241 1990 814 2311 674 2594 2031 1082 488 304 537
internal_count=18768 8175 10593 2747 5428 4696 988 4021 6572 1759 451 1348 537 3067 3505 1159 732 3007 2193 1689 263 855 2551 911 337 411 1241 1990 814 2311 674 2594 2031 1082 488 304 537
is_linear=0
shrinkage=0.0153641


Tree=19
num_leaves=38
num_cat=0
split_feature=28 28 28 30 32 30 28 28 31 33 31 32 31 9 28 30 28 51 31 32 30 33 35 28 33 30 22 28 32 32 31 41 33 31 9 31 47
split_gain=46670 11530.1 10876.4 2559.66 1824.88 1640.07 1607.31 766.162 750.491 674.474 651.522 572.818 450.361 318.31 303.826 296.008 261.141 245.988 218.519 211.613 210.184 173.97 171.933 169 163.105 143.457 137.657 136.308 131.016 125.319 161.183 121.38 121.293 116.988 119.19 113.865 105.833
threshold=9.9425000000000008 7.4225000000000003 14.117500000000001 11.267500000000002 2.6175183057560156 8.802500000000002 6.1675000000000013 17.822500000000002 13.385833333333336 12.91229166666667 12.157500000000001 2.6490253701230055 11.495416666666667 -0.5 5.3775000000000004 9.4125000000000014 8.3325000000000014 37.245625000000004 13.293750000000001 2.2046319605696518 14.9975 11.234375000000002 9.4684375000000021 9.0825000000000014 10.288333333333336 6.9075000000000015 18.987083333333334 10.742500000000001 1.4594246868663994 1.7795570606565099 11.613750000000003 9.0619476597310911 11.072708333333335 14.626250000000001 0.78656609248549303 9.1837500000000016 41.415000000000006
decision_type=2 2 2 2 2 2 2 2 2 2 2 2 2 2 2 2 2 2 2 2 2 2 2 2 2 2 2 2 2 2 2 2 2 2 2 2 2
left_child=1 6 3 10 9 16 14 13 11 32 15 22 19 17 -1 -2 -3 -6 -9 23 26 -15 -5 -7 -13 -8 -10 -17 -11 30 -24 -14 -4 34 -12 -18 -35
right_child=2 5 4 8 7 12 25 18 20 28 33 24 31 21 -16 27 35 -19 -20 -21 -22 -23 29 -25 -26 -27 -28 -29 -30 -31 -32 -33 -34 36 -36 -37 -38
leaf_value=-0.052592476115416092 0.00070499674033613544 -0.018320070637765872 0.025642351391131139 0.016239307340225714 0.070690452694131406 -0.00574998653760018 -0.032385672961418248 0.089574090669595596 0.070870300531907071 0.055375471688013878 0.028530880664161647 0.040393115555378584 0.040866316732135137 0.066041921041521526 -0.041475003047971574 0.008846653650221678 -0.013269243524056756 0.026701739902347178 0.12365995561651902 0.011927814283437352 0.072149621312731074 0.091653750824429017 0.018576635376693181 0.0014461788344381969 0.063968452521788732 -0.024644978872164797 0.042684782885547189 0.016739924815771478 0.079198448219650289 0.035453364402518006 0.032105482573589361 0.014154160006486689 0.044488573270048501 0.028727685088505116 0.0090132339137843041 -0.0050835015156833795 0.054738490828517471
leaf_weight=1057 626 1732 130 375 104 1531 1096 73 46 90 305 245 47 89 1317 1043 936 43 141 275 83 261 454 1550 99 1187 429 1026 159 384 387 271 221 91 98 703 64
leaf_count=1057 626 1732 130 375 104 1531 1096 73 46 90 305 245 47 89 1317 1043 936 43 141 275 83 261 454 1550 99 1187 429 1026 159 384 387 271 221 91 98 703 64
internal_value=5.11935e-06 -0.0188214 0.0311832 0.0220825 0.071116 -0.00642121 -0.0375783 0.0877798 0.0337655 0.0513285 0.013094 0.0292467 0.000679734 0.0771901 -0.0464322 0.0099627 -0.0141597 0.0579198 0.112203 -0.000976867 0.0494791 0.0852156 0.0253689 -0.00212996 0.0472377 -0.0283656 0.045466 0.0127631 0.0706802 0.0281581 0.0248133 0.018144 0.037542 0.028201 0.023797 -0.00976011 0.0395697
internal_weight=18768 11702 7066 5755 1311 7045 4657 711 2502 600 3253 1944 3674 497 2374 2695 3371 147 214 3356 558 350 1600 3081 344 2283 475 2069 249 1225 841 318 351 558 403 1639 155
internal_count=18768 11702 7066 5755 1311 7045 4657 711 2502 600 3253 1944 3674 497 2374 2695 3371 147 214 3356 558 350 1600 3081 344 2283 475 2069 249 1225 841 318 351 558 403 1639 155
is_linear=0
shrinkage=0.0153641


Tree=20
num_leaves=38
num_cat=0
split_feature=28 28 28 32 30 30 28 8 33 35 33 32 28 28 32 28 28 39 30 0 30 28 32 35 33 58 8 61 38 33 32 30 41 32 30 41 61
split_gain=45249.4 11194.7 10442.6 2233.26 2227.17 1713.33 1194.68 848.606 847.707 558.496 408.23 349.447 314.708 298.123 291.545 275.46 273.664 244.634 235.918 183.005 181.336 179.633 171.182 171.148 164.462 145.936 133.202 125.707 124.088 121.716 112.001 103.703 100.587 99.4564 97.6678 96.1336 96.0587
threshold=9.7975000000000012 13.437500000000002 7.1875000000000009 3.0944749841106156 10.982500000000002 8.6175000000000015 5.8125000000000009 -0.78656609248549292 12.485416666666667 11.735312500000001 11.151875000000002 2.4836485759937257 16.930000000000003 8.9525000000000023 1.9939234754426425 7.9575000000000005 16.302500000000006 179.81750000000002 9.2825000000000006 4.5000000000000009 6.5225000000000009 4.9875000000000016 2.3350129356680633 9.4684375000000021 13.961666666666668 44.65708333333334 -0.78656609248549292 3.3596937991475855 165.16250000000002 13.961666666666668 4.0123650171525389 13.897500000000003 30.1441477124709 3.6518617341087403 9.7325000000000017 19.713500578722265 3.6955343490224473
decision_type=2 2 2 2 2 2 2 2 2 2 2 2 2 2 2 2 2 2 2 2 2 2 2 2 2 2 2 2 2 2 2 2 2 2 2 2 2
left_child=2 4 6 8 10 15 21 33 14 11 18 23 25 32 -3 -4 -10 31 -2 -12 -8 -1 34 -6 -18 -9 -16 -28 -25 35 -14 -11 -7 -5 -15 -21 -19
right_child=1 3 5 7 9 13 20 12 16 17 19 -13 30 22 26 -17 24 36 -20 29 -22 -23 -24 28 -26 -27 27 -29 -30 -31 -32 -33 -34 -35 -36 -37 -38
leaf_value=-0.054230696551836773 -0.0015556556319278744 0.026308781390805332 -0.021263933321085008 0.10714736676702767 0.013957563443733331 -0.007012748539975946 -0.036553409135460971 0.074248884632951997 0.057305493805386042 0.035053138039012159 0.0014909207050709944 0.037797144329418851 0.080380981509912214 -0.0014355483499224381 0.071417550698485432 -0.012295489572012855 0.06403072703186706 0.079124651088317177 0.0099545929121830825 0.019786030468570245 -0.027803512200622639 -0.044190950553536272 0.018211816025739652 0.017020456413978056 0.095621731932796022 0.047873189308645855 0.054665426095450546 0.032612585042665815 0.028459803228061829 0.043042541380847905 0.10640214039336597 0.052968494533737434 0.0037607988286139427 0.13726952657721148 0.0056496815212975096 0.048955480409504912 0.046301882583789887
leaf_weight=679 542 271 1426 61 439 1569 946 239 350 470 101 428 80 1048 50 1872 75 52 1871 509 1394 1163 160 312 91 66 124 125 812 69 96 93 235 66 817 28 39
leaf_count=679 542 271 1426 61 439 1569 946 239 350 470 101 428 80 1048 50 1872 75 52 1871 509 1394 1163 160 312 91 66 124 125 812 69 96 93 235 66 817 28 39
internal_value=5.36158e-06 0.0293795 -0.0193691 0.0640989 0.0191741 -0.0080589 -0.0386416 0.0876871 0.0508683 0.0295452 0.0103796 0.0254898 0.0782397 -0.00106729 0.0379099 -0.0161752 0.0651463 0.0418702 0.00736934 0.0206447 -0.031346 -0.0479017 0.00297888 0.0221117 0.0815183 0.0686046 0.0483803 0.0436579 0.025291 0.0238341 0.0947627 0.0380445 -0.00560884 0.123145 0.00166876 0.0213388 0.0652959
internal_weight=18768 7459 11309 1694 5765 7127 4182 608 1086 2645 3120 1991 481 3829 570 3298 516 654 2413 707 2340 1842 2025 1563 166 305 299 249 1124 606 176 563 1804 127 1865 537 91
internal_count=18768 7459 11309 1694 5765 7127 4182 608 1086 2645 3120 1991 481 3829 570 3298 516 654 2413 707 2340 1842 2025 1563 166 305 299 249 1124 606 176 563 1804 127 1865 537 91
is_linear=0
shrinkage=0.0153641


Tree=21
num_leaves=38
num_cat=0
split_feature=28 28 28 30 32 30 28 28 28 28 9 28 35 28 34 28 35 49 30 32 34 12 42 32 0 30 50 34 28 49 32 35 0 35 30 61 61
split_gain=43881.6 10840.7 10238.2 2409.11 1723.08 1543.31 1514.88 724.533 720.273 434.938 346.225 306.424 300.385 290.567 274.952 247.499 217.229 196.389 185.404 173.02 172.654 166.24 153.111 145.667 134.777 126.76 125.922 119.817 116.123 115.359 114.9 115.382 107.189 96.179 95.3351 91.6875 89.1936
threshold=9.9425000000000008 7.4225000000000003 14.117500000000001 11.267500000000002 2.6175183057560156 8.802500000000002 6.2275000000000009 18.277500000000003 12.267500000000002 10.922500000000001 -0.5 5.3775000000000004 12.762291666666668 9.1318750000000026 3.0913117148439606 8.4025000000000016 10.318854166666668 44.602916666666673 9.3125000000000018 2.4170645038947085 2.4086738544590758 9.5000000000000018 171.8641666666667 1.1578932017452881 4.5000000000000009 7.7825000000000015 3.1155440884094374 2.2267053926832951 15.735000000000001 47.909583333333337 2.2953982764893115 11.422083333333335 17.500000000000004 12.24375 10.875781250000001 3.2064550778704413 4.7001767118396245
decision_type=2 2 2 2 2 2 2 2 2 2 2 2 2 2 2 2 2 2 2 2 2 2 2 2 2 2 2 2 2 2 2 2 2 2 2 2 2
left_child=1 6 3 9 12 15 11 10 20 18 17 -1 22 27 30 -3 36 -6 -2 34 33 32 -4 -24 -18 -8 -9 -7 -12 -16 31 -10 -14 -5 -15 -26 -11
right_child=2 5 4 8 7 13 25 26 14 16 28 -13 21 19 29 -17 24 -19 -20 -21 -22 -23 23 -25 35 -27 -28 -29 -30 -31 -32 -33 -34 -35 -36 -37 -38
leaf_value=-0.051006934860299967 -0.0011445896064025993 -0.017442819287025183 0.029714962697738156 0.021344039232704393 0.06812391497500174 -0.0058908229930648825 -0.028967747204114706 0.12273255137861777 0.02529786895709462 0.017068855334261133 0.073929034747135025 -0.039989940701006033 0.04289616082366049 0.0020206224126942964 0.062817541981078778 -0.0090572319607108917 -0.005129016902772135 0.030155674312457317 0.01041786119958368 0.022614709684794652 0.032964839390008979 0.078061149447930092 0.025165915054325652 0.06001758925129734 0.034738309531637486 -0.019529974396318386 0.094030065809679958 0.0033229175178583472 0.09172116479767041 0.040856689144031753 0.046400229159137399 0.041570983332216559 0.067637000071684911 0.045106627054880798 0.011448190933381487 0.022493054567228381 0.0058956953938371949
leaf_weight=1057 428 1879 174 937 103 1389 1785 111 221 535 169 1397 110 1417 194 1492 32 48 1391 122 584 96 39 111 235 418 66 438 214 84 243 197 70 42 308 385 247
leaf_count=1057 428 1879 174 937 103 1389 1785 111 221 535 169 1397 110 1417 194 1492 32 48 1391 122 584 96 39 111 235 418 66 438 214 84 243 197 70 42 308 385 247
internal_value=5.63636e-06 -0.0182498 0.0302379 0.0214083 0.0689813 -0.00622602 -0.0364373 0.0851735 0.0327425 0.0126881 0.0761316 -0.044742 0.0497539 0.000662279 0.0433831 -0.0137327 0.019015 0.0561551 0.00769759 0.00495913 0.0263414 0.0615682 0.0396326 0.0510383 0.0255656 -0.0271805 0.112243 -0.00368172 0.0839472 0.0562434 0.0379466 0.0329965 0.0526335 0.0223797 0.00370597 0.0271519 0.0135441
internal_weight=18768 11702 7066 5755 1311 7045 4657 711 2502 3253 534 2454 600 3674 939 3371 1434 151 1819 1847 1563 276 324 150 652 2203 177 1827 383 278 661 418 180 979 1725 620 782
internal_count=18768 11702 7066 5755 1311 7045 4657 711 2502 3253 534 2454 600 3674 939 3371 1434 151 1819 1847 1563 276 324 150 652 2203 177 1827 383 278 661 418 180 979 1725 620 782
is_linear=0
shrinkage=0.0153641


Tree=22
num_leaves=38
num_cat=0
split_feature=28 28 28 30 32 30 28 8 31 31 32 31 28 31 32 28 30 39 8 32 28 32 32 31 57 37 31 10 30 8 31 30 32 31 37 30 9
split_gain=42547.8 11067.8 9475.18 2141.18 1671.65 1660.17 1468.7 778.174 679.257 567.857 554.571 529.996 366.669 360.692 332.753 297.328 253.324 249.99 222.965 192.31 185.616 173.241 159.662 148.254 134.122 127.351 129.732 123.97 122.891 120.418 119.125 116.959 116.065 109.06 104.021 100.853 97.7239
threshold=10.042500000000002 7.4225000000000003 14.117500000000001 11.267500000000002 2.7151062619688262 9.0875000000000021 6.2275000000000009 -0.78656609248549292 13.823750000000002 12.157500000000001 2.6490253701230055 12.674166666666668 8.4025000000000016 11.495416666666667 3.9009699634000188 5.2425000000000006 10.027500000000002 179.81750000000002 -0.9159756150367534 1.7643010872583462 12.217500000000003 2.2046319605696518 3.6518617341087403 9.7737500000000015 47.732500000000009 156.35250000000002 13.107083333333335 -0.60785761079279388 7.7825000000000015 -0.70710678118654735 9.1837500000000016 12.717500000000003 4.193485522567717 14.626250000000001 155.92250000000004 7.8175000000000017 0.78656609248549303
decision_type=2 2 2 2 2 2 2 2 2 2 2 2 2 2 2 2 2 2 2 2 2 2 2 2 2 2 2 2 2 2 2 2 2 2 2 2 2
left_child=1 6 3 9 11 12 15 22 10 16 20 19 35 21 24 -1 -2 29 -13 -4 -5 23 -6 -7 -9 -15 -27 -20 -8 -10 -14 -16 -12 36 -35 -3 -11
right_child=2 5 4 8 7 13 28 14 17 33 32 18 30 25 31 -17 -18 -19 27 -21 -22 -23 -24 -25 -26 26 -28 -29 -30 -31 -32 -33 -34 34 -36 -37 -38
leaf_value=-0.051059797957450893 0.0045129380577681611 -0.020464278773093411 0.025287754021848213 0.021240720742320196 0.10097828902058266 -0.0031046114483345962 -0.028522772468645624 0.070068721796482769 0.064205271808962502 0.027432156142573522 0.043601104582892812 0.081457887807601562 -0.011073636163154675 0.006069461291120154 0.061447965169883566 -0.039929692695710187 0.01444466931649209 0.073231874389471416 0.072544861423528881 0.048761303032541628 0.03238614666069297 0.01206357910521311 0.13356343619892216 0.0045326696574839566 0.044941163101977773 0.020372097750127178 0.055953777511704571 0.045147954762657219 -0.01923017152156567 0.040085527448065726 -0.0037093099304174948 0.094797874745245508 0.080241655623629074 0.026129156713438854 0.05203697013071383 -0.013578168066051973 0.0090321496615269475
leaf_weight=908 1080 931 174 1103 107 1686 1785 226 59 297 338 117 1086 134 32 1546 1383 85 59 159 522 293 63 931 68 173 28 126 418 319 993 180 22 77 72 1099 89
leaf_count=908 1080 931 174 1103 107 1686 1785 226 59 297 338 117 1086 134 32 1546 1383 85 59 159 522 293 63 931 68 173 28 126 418 319 993 180 22 77 72 1099 89
internal_value=5.86023e-06 -0.017345 0.0308475 0.0219181 0.0679248 -0.00560789 -0.0358776 0.084752 0.0325788 0.0132102 0.0286601 0.0499731 -0.0120947 0.00260653 0.0750834 -0.0440548 0.010091 0.0493441 0.0647278 0.0365365 0.0248274 0.0008676 0.113311 -0.000387385 0.0643191 0.0176947 0.02542 0.0540094 -0.026763 0.0439078 -0.00755745 0.0898767 0.0459182 0.0275537 0.0387438 -0.0167394 0.0232021
internal_weight=18768 12011 6757 5446 1311 7354 4657 676 2448 2998 1985 635 4109 3245 506 2454 2463 463 302 333 1625 2910 170 2617 294 335 201 185 2203 378 2079 212 360 535 149 2030 386
internal_count=18768 12011 6757 5446 1311 7354 4657 676 2448 2998 1985 635 4109 3245 506 2454 2463 463 302 333 1625 2910 170 2617 294 335 201 185 2203 378 2079 212 360 535 149 2030 386
is_linear=0
shrinkage=0.0153641


Tree=23
num_leaves=38
num_cat=0
split_feature=30 36 30 30 30 30 30 0 30 49 38 31 33 36 31 39 9 31 31 30 31 30 31 31 9 39 9 0 49 31 30 34 33 33 34 33 38
split_gain=40503.2 9428.85 7305.26 3423.57 1805.4 1009.43 912.194 831.04 681.241 538.216 518.727 417.328 402.838 401.534 394.288 317.707 320.994 259.805 258.115 248.299 222.803 216.406 210.624 205.84 192.426 190.283 172.355 162.401 131.06 124.188 122.548 119.933 149.953 119.17 114.089 112.991 112.423
threshold=9.4125000000000014 2.6054706755069774 7.1275000000000004 13.382500000000002 10.912500000000001 6.0375000000000005 8.3975000000000026 5.5000000000000009 16.655000000000005 50.436348039215694 168.58750000000003 13.025000000000002 12.697291666666667 2.0527257141076292 11.069166666666669 168.33250000000004 -0.5 11.109166666666669 9.5987500000000026 14.307500000000003 8.8812500000000014 5.0225000000000009 13.19166666666667 13.025000000000002 -0.12940952255126037 175.12592105263158 0.78656609248549303 4.5000000000000009 48.577083333333341 10.307083333333335 7.7825000000000015 3.5385610235853107 13.552708333333335 14.481875000000002 2.7911234929193598 7.0933333333333346 168.36750000000004
decision_type=2 2 2 2 2 2 2 2 2 2 2 2 2 2 2 2 2 2 2 2 2 2 2 2 2 2 2 2 2 2 2 2 2 2 2 2 2
left_child=2 4 5 7 17 21 18 -3 15 10 31 -10 -12 25 27 -5 -17 26 30 36 -7 -1 34 24 -11 -6 28 -8 -2 -21 -4 32 -9 -14 -18 -27 -15
right_child=1 3 6 8 13 20 14 9 11 23 12 -13 33 19 -16 16 22 -19 -20 29 -22 -23 -24 -25 -26 35 -28 -29 -30 -31 -32 -33 -34 -35 -36 -37 -38
leaf_value=-0.051250417767087768 0.0076901517688187804 0.0038569404777975269 -0.021940009968767021 0.045998756398707666 0.010342947874504196 -0.030778002233955506 -0.019296860203501253 0.023411212803751941 0.067857410453981207 0.011742679418879383 0.046402652530738234 0.10249906846239525 0.067938160776278275 0.018486883005648973 0.012184548111547629 0.052260550216659984 0.051479261595424729 0.016908085731295396 -0.0071543964451579152 0.026295980160130447 -0.015447342816505146 -0.04071724220836534 0.094167034702198379 0.0354880291746658 0.056351136046092341 0.0051650901853735028 -0.015405579321920663 -0.0051293187212476344 0.00077990799257533414 0.050741733523766944 -0.01501704124038857 0.050523357793202717 0.041697356439327982 0.097818737893185237 0.078646618660489609 0.023278328677610035 0.030279196590797017
leaf_weight=685 1664 183 1205 218 513 1619 206 242 145 233 281 201 113 294 306 176 69 444 594 70 261 1463 124 263 25 89 101 2577 1061 175 1219 97 191 48 87 969 557
leaf_count=685 1664 183 1205 218 513 1619 206 242 145 233 281 201 113 294 306 176 69 444 594 70 261 1463 124 263 25 89 101 2577 1061 175 1219 97 191 48 87 969 557
internal_value=6.11713e-06 0.024461 -0.0208247 0.0482868 0.0136393 -0.0368852 -0.01023 0.0347675 0.0704809 0.0385544 0.0453125 0.0880673 0.057618 0.0230201 -0.00435991 0.0614106 0.0687364 0.00598672 -0.016237 0.0301603 -0.028653 -0.0440843 0.0790121 0.0259236 0.0161378 0.018033 0.00426889 -0.00618038 0.00500006 0.0438062 -0.0184613 0.035018 0.0315054 0.0770452 0.0667766 0.0217569 0.0262148
internal_weight=18768 8633 10135 2696 5937 4028 6107 1676 1020 1493 972 346 442 2667 3089 674 456 3270 3018 1096 1880 2148 280 521 258 1571 2826 2783 2725 245 2424 530 433 161 156 1058 851
internal_count=18768 8633 10135 2696 5937 4028 6107 1676 1020 1493 972 346 442 2667 3089 674 456 3270 3018 1096 1880 2148 280 521 258 1571 2826 2783 2725 245 2424 530 433 161 156 1058 851
is_linear=0
shrinkage=0.0153641


Tree=24
num_leaves=38
num_cat=0
split_feature=28 28 28 31 28 28 28 28 33 33 31 39 31 51 34 8 7 39 31 34 28 8 28 28 39 8 31 28 46 31 8 39 28 39 35 31 39
split_gain=40111.8 9945.62 9245.77 1725.96 1570.62 1347.8 1061.72 720.788 663.001 473.162 407.345 366.083 321.955 262.847 258.805 252.601 232.711 218.326 199.539 196.959 186.084 179.843 161.081 160.085 155.574 154.223 137.088 134.443 134.018 137.016 132.716 143.122 116.792 116.709 149.215 108.966 125.791
threshold=9.7975000000000012 13.437500000000002 7.1875000000000009 12.083750000000002 16.930000000000003 8.5425000000000022 5.8125000000000009 10.777500000000002 12.775833333333335 11.072708333333335 11.069166666666669 176.84750000000003 14.338750000000001 36.563958333333339 2.9371232381557495 -0.70710678118654735 1.0000000180025095e-35 190.75750000000002 12.674166666666668 2.3359917111281212 7.767500000000001 -0.78656609248549292 4.9125000000000005 6.5375000000000005 160.78250000000003 0.78656609248549325 10.392916666666668 19.552500000000006 41.230000000000011 13.025000000000002 -0.9159756150367534 183.85250000000002 14.607500000000002 174.87500000000003 7.7396875000000005 10.104583333333334 185.03000000000003
decision_type=2 2 2 2 2 2 2 2 2 2 2 2 2 2 2 2 2 2 2 2 2 2 2 2 2 2 2 2 2 2 2 2 2 2 2 2 2
left_child=2 3 6 7 9 20 22 35 14 17 33 32 16 19 -6 -14 -5 -3 -10 -9 -4 26 -1 -8 -17 -23 -15 -20 -12 -30 -18 -32 -11 -7 -35 36 -2
right_child=1 4 5 12 8 10 23 13 18 11 28 -13 15 21 -16 24 30 -19 27 -21 -22 25 -24 -25 -26 -27 -28 -29 29 -31 31 -33 -34 34 -36 -37 -38
leaf_value=-0.051663422495292141 0.00052064060158266189 0.025637237842398557 -0.019283731650889483 0.0097202662252282839 0.041994606624841176 -0.0050805125584009866 -0.033841505527598514 0.021299430534782251 0.065472101113323619 0.042227398544758828 0.003338173246464043 0.070198905820049576 0.075002801705602112 0.01312229722747966 0.077782353039952415 0.029161313448301852 0.052806722291612054 0.05028071082857858 0.095396181410574474 0.0371896643774852 -0.011830003036906154 0.0066903607268096604 -0.041890485419401331 -0.025748742279948101 0.048181503987653473 0.028158658765450682 0.027644027102824965 0.120991838235936 0.016376818472556003 0.056357337142739307 0.025927459274562782 0.044025604891451006 0.056810281594912193 -0.0052558394982697675 0.0065506655039691501 0.011134524492461006 0.010558409631912064
leaf_weight=603 816 206 1279 144 89 2295 1081 646 40 277 211 320 53 283 107 194 61 146 172 259 2079 587 1239 1259 219 91 338 79 223 22 590 126 258 464 554 897 461
leaf_count=603 816 206 1279 144 89 2295 1081 646 40 277 211 320 53 283 107 194 61 146 172 259 2079 587 1239 1259 219 91 338 79 223 22 590 126 258 464 554 897 461
internal_value=6.29111e-06 0.0276627 -0.0182351 0.0180435 0.0603878 -0.00759282 -0.0363696 0.0133098 0.0836965 0.050961 -0.00128592 0.057144 0.0329779 0.0195009 0.0616387 0.043398 0.0276907 0.0358997 0.0984586 0.02586 -0.0146708 0.0150645 -0.0450993 -0.029492 0.0392803 0.00958525 0.0210377 0.103614 0.0123229 0.0200444 0.0310151 0.0291329 0.0492934 -0.00316017 0.00116934 0.00703102 0.00414627
internal_weight=18768 7459 11309 5765 1694 7127 4182 4378 487 1207 3769 855 1387 2204 196 466 921 352 291 905 3358 1299 1842 2340 413 678 621 251 456 245 777 716 535 3313 1018 2174 1277
internal_count=18768 7459 11309 5765 1694 7127 4182 4378 487 1207 3769 855 1387 2204 196 466 921 352 291 905 3358 1299 1842 2340 413 678 621 251 456 245 777 716 535 3313 1018 2174 1277
is_linear=0
shrinkage=0.0153641


Tree=25
num_leaves=38
num_cat=0
split_feature=30 35 30 29 32 32 29 37 29 30 29 33 33 49 35 33 35 29 30 33 33 29 29 37 32 43 35 37 33 30 38 32 32 32 33 40 32
split_gain=38166.9 9240.4 6868.97 3261.42 1564.88 1272.05 1013.23 972.727 880.266 787.319 537.637 528.186 454.387 400.454 303.676 294.29 264.172 246.319 230.059 201.343 193.744 163.78 162.66 159.738 155.886 172.545 153.149 176.996 148.288 145.065 140.295 140.077 130.126 122.107 115.65 107.085 106.511
threshold=9.4125000000000014 11.202291666666669 7.1275000000000004 14.067500000000001 2.4836485759937257 3.1745458954259882 6.2275000000000009 170.01250000000002 8.5125000000000011 10.742500000000001 10.762500000000001 13.444166666666668 12.298125000000001 48.185833333333342 9.4684375000000021 10.055000000000001 9.3296875000000021 5.2425000000000006 7.9775000000000009 10.192291666666668 14.359791666666668 16.990000000000006 11.482500000000002 135.27250000000004 1.7975877352197931 32.259452405069936 8.2161458333333357 132.86000000000004 13.190625000000002 8.3975000000000026 165.69750000000002 1.5216589083242853 2.3350129356680633 2.9038056138862651 11.810625000000002 145.06125000000003 1.6426067941894262
decision_type=2 2 2 2 2 2 2 2 2 2 2 2 2 2 2 2 2 2 2 2 2 2 2 2 2 2 2 2 2 2 2 2 2 2 2 2 2
left_child=2 4 6 7 9 11 17 10 18 26 23 24 -7 20 36 29 -6 -1 -4 -8 -9 -14 -17 -3 -5 -26 -2 -28 32 -10 -16 -13 -12 -18 -15 -34 -11
right_child=1 3 8 5 16 12 19 13 15 14 28 31 21 34 30 22 33 -19 -20 -21 -22 -23 -24 -25 25 -27 27 -29 -30 -31 -32 -33 35 -35 -36 -37 -38
leaf_value=-0.048759193583201674 -0.0018127728690763454 0.0010949840928616353 -0.020240414905782537 0.027666469876750061 0.024313638607668737 0.06789196190437792 -0.028944747291661976 0.056097029601415618 -0.012719549576593983 0.0042032145562513577 0.021817228432446777 0.051726055136314529 0.084363116075065289 0.022996506128901036 0.013050194680792047 0.0011283782077769586 0.035613951347043107 -0.038415577278353784 -0.011720976618630165 -0.013837072904321398 0.095984646030327886 0.1100894482335012 0.021769576258108554 0.019830643204214213 0.058482127891439147 0.032107572537193131 -0.014610801878824759 0.0072568989814494498 0.040516533474502785 -0.0044023820616432173 0.024090445716794702 0.080436650392325101 0.061787117628407509 0.054015403219714334 0.043434908634157395 0.026736932588959397 0.014956178813879933
leaf_weight=892 740 175 1463 119 329 169 1462 340 721 456 286 58 103 113 380 704 205 1430 1536 244 32 167 103 278 166 93 91 2017 383 1580 967 155 40 151 160 44 416
leaf_count=892 740 175 1463 119 329 169 1462 340 721 456 286 58 103 113 380 704 205 1430 1536 244 32 167 103 278 166 93 91 2017 383 1580 967 155 40 151 160 44 416
internal_value=6.48248e-06 0.0237456 -0.0202146 0.046204 0.0124946 0.0681189 -0.0357882 0.0339985 -0.0099412 0.00954661 0.0258397 0.0533421 0.087952 0.0492305 0.0164071 -0.00421052 0.0342848 -0.042396 -0.0158789 -0.0267874 0.0596178 0.100401 0.00377144 0.0125995 0.0423643 0.0490695 0.00419989 0.00631055 0.0337951 -0.00701009 0.0209802 0.0727193 0.0268047 0.0434658 0.0350166 0.0436202 0.00933715
internal_weight=18768 8633 10135 2881 5752 1030 4028 1851 6107 5067 1206 591 439 645 2219 3108 685 2322 2999 1706 372 270 807 453 378 259 2848 2108 753 2301 1347 213 370 356 273 84 872
internal_count=18768 8633 10135 2881 5752 1030 4028 1851 6107 5067 1206 591 439 645 2219 3108 685 2322 2999 1706 372 270 807 453 378 259 2848 2108 753 2301 1347 213 370 356 273 84 872
is_linear=0
shrinkage=0.0153641


Tree=26
num_leaves=38
num_cat=0
split_feature=28 28 28 30 28 32 30 8 31 33 31 32 32 31 28 30 28 42 39 32 32 33 30 61 35 31 32 8 31 32 51 32 8 31 32 31 38
split_gain=37790.8 9809.89 8425.64 1906.05 1533 1528.59 1296.26 727.347 571.219 571.092 527.561 485.289 337.777 324.619 265.75 252.13 250.186 250.169 175.423 174.372 162.085 143.714 143.475 142.972 138.382 130.448 115.877 157.036 140.492 114.028 112.291 108.404 104.05 107.051 100.861 98.8924 98.4535
